person,0,1,2,3,4,5,6,7,8,9,10,11,12,13,14,15,16,17,18,19,20,21,22,23,24,25,26,27,28,29,30,31,32,33,34,35,36,37,38,39,40,41,42,43,44,45,46,47,48,49,50,51,52,53,54,55,56,57,58,59,60,61,62,63,64,65,66,67,68,69,70,71,72,73,74,75,76,77,78,79,80,81,82,83,84,85,86,87,88,89,90,91,92,93,94,95,96,97,98,99,100,101,102,103,104,105,106,107,108,109,110,111,112,113,114,115,116,117,118,119,120,121,122,123,124,125,126,127,128,129,130,131,132,133,134,135,136,137,138,139,140,141,142,143,144,145,146,147,148,149,150,151,152,153,154,155,156,157,158,159,160,161,162,163,164,165,166,167,168,169,170,171,172,173,174,175,176,177,178,179,180,181,182,183,184,185,186,187,188,189,190,191,192,193,194,195,196,197,198,199,200,201,202,203,204,205,206,207,208,209,210,211,212,213,214,215,216,217,218,219,220,221,222,223,224,225,226,227,228,229,230,231,232,233,234,235,236,237,238,239,240,241,242,243,244,245,246,247,248,249,250,251,252,253,254,255,256,257,258,259,260,261,262,263,264,265,266,267,268,269,270,271,272,273,274,275,276,277,278,279,280,281,282,283,284,285,286,287,288,289,290,291,292,293,294,295,296,297,298,299
Presperín,0.00806958135,-0.0304097664,0.0185562316,0.0186455753,-0.139984787,0.104974173,0.196559235,-0.0446442254,0.00937618595,0.0443138108,-0.0368139446,-0.175963417,-0.0434454344,-0.0873512402,-0.00453750463,-0.0729200318,-0.120186269,0.0903114378,-0.1309136,-0.0124542322,0.0280925911,0.0318661295,0.0622985512,0.0921288654,0.0669025481,-0.0831360817,0.00733196829,-0.059171658,-0.0623230413,0.0213696491,0.0999908298,-0.0234815199,0.00424341671,-0.0560262576,0.0730205029,-0.0684390441,-0.057594832,0.060528934,-0.06140057,-0.0717368722,0.0260494109,0.0454402938,-0.0629703328,-0.0285106562,0.0158850867,-0.0648929626,0.0585519448,0.209118962,0.0902161449,-0.0473108292,-0.0454876088,-0.0139629962,-0.0551496744,-0.0759260431,-0.0377851427,-0.00507698487,-0.00611007726,0.0431635603,0.118093245,-0.0656012148,-0.217281923,0.0219471734,-0.0311638024,-0.0251876432,-0.0219100546,0.0182915945,0.0518294387,0.00438070484,-0.0421717241,-0.058757104,-0.0260339249,-0.0510852411,-0.0715819001,-0.00280266535,-0.118558012,0.0540460683,0.106234863,0.0541238561,-0.00832451135,0.0906277746,-0.0396487936,0.0450414754,-0.0797582418,0.00537054893,0.15315862,-0.0167671908,-0.035808228,-0.0445525609,0.121293418,0.057695087,0.000156347742,0.0135071222,0.0379139557,0.101392969,-0.0981273726,0.0435249656,-0.166030258,-0.138377845,0.151114479,0.117732435,-0.0596040338,-0.0144603085,0.0586747825,0.0021845228,0.0570674017,0.0227955002,-0.00367269339,0.127095252,0.0397276022,0.202431411,0.00928984676,0.094866015,0.0624605194,-0.100337937,-0.0350435115,0.000634154421,0.0819651484,-0.17828162,-0.129450262,0.0283862986,0.0917626247,-0.0158766992,0.152240783,-0.152638853,0.164179683,-0.107236385,0.0603224486,-0.0624338984,-0.140284106,-0.00458245911,0.102521844,-0.00944297202,0.0680596754,-0.0247327052,-0.140405014,-0.0757260099,-0.253461599,0.00383827067,0.173817918,-0.134802386,0.0109043447,0.062158335,-0.000411243178,-0.0585381836,-0.0794008598,0.0351931415,-0.15397954,0.138169378,0.035469912,0.0811561644,-0.117990561,-0.0231164973,0.123999782,-0.0384658426,0.11617168,0.057489533,-0.15323253,-0.00806205999,0.0389698707,-0.113333985,-0.0565994829,0.113656454,-0.0877789184,-0.0823676288,0.149649039,-0.11289794,0.119083852,-0.106445514,0.193457395,-0.162915245,0.0906569362,0.0361083411,-0.132401347,0.109519117,-0.0373321399,0.0230744425,-0.0531242564,0.00756583456,-0.0513911992,0.0130542926,-0.03252884,-0.160535485,0.157677323,0.0768641531,0.0190931279,0.028105136,0.141062602,0.0557426549,0.185930222,0.0474115387,-0.0399747826,0.141651735,0.143933207,-0.0953210965,-0.0741934106,0.0704722106,0.0481750481,-0.205148399,0.0496679954,-0.0642263815,0.0948248953,-0.0437345505,0.0130043477,0.0364457555,0.155790523,-0.132510871,-0.113271423,-0.171035424,-0.0267620273,0.0579520911,0.212790415,0.0977144539,-0.059383966,0.030900538,-0.0927525833,-0.0251151603,-0.00996118411,-0.032397043,-0.0287992042,-0.0247414913,0.0245268159,0.0186038259,-0.125797555,0.0815490931,-0.0278749913,0.122001983,-0.00229413947,0.203547701,0.150957465,0.0229596701,0.103143603,0.178324744,-0.00145521748,0.0386927687,0.186161011,-0.174473017,-0.0536190085,0.150400341,-0.0270066988,-0.00787422527,0.00111913565,0.122949861,-0.0417817645,0.0273434334,0.0671438873,0.0288631022,-0.0204585679,0.143251285,-0.0744557381,0.0267220661,0.0614695325,0.0221241787,0.0123708788,0.0428884551,0.098895289,0.13029699,-0.041286625,0.0386702605,-0.147629037,-0.070399411,0.125237986,-0.0845183507,-0.070460014,0.0185628608,0.17702274,-0.164115906,-0.0670154914,0.022189755,-0.0215131622,-0.183138743,0.0644716099,0.0933733061,0.116438448,0.236306503,-0.0653329492,-0.116913199,-0.030109873,-0.0129912617,-0.000496737135,0.109348677,-0.0812616274,-0.151677027,0.00796314701,0.0021463912,-0.102022044,-0.131485954,-0.00140843866,0.104199603,-0.0950605422,0.0349726342,0.0874667317,-0.062372949,-0.0658028945,0.200794637,0.00109254546,0.00824587326,-0.000296013139,-0.0277361572,0.12858443,0.0285990443
Migaš,-0.50141263,-0.03523353,0.6154239,-0.00475911,-0.2968643,0.84571564,0.40651903,-0.22947879,0.46010077,0.06409802,0.46940544,-0.3585323,-0.64451134,-0.40280506,0.25420374,-0.28072387,-0.78919196,0.9701756,0.08532716,0.1266037,-0.3395545,0.3983361,0.54960483,-0.22412202,0.24788246,-0.8568359,-0.24658279,0.0259636,-0.36843586,-0.3400489,0.60512626,-0.8597049,-0.17205718,-0.81080276,-0.12239705,0.07989238,-0.5419242,0.14868489,0.08665723,-0.36420044,0.19716252,-0.14892264,0.55682,-0.13242936,-0.05997324,-0.11228581,0.08444662,0.33295277,0.16961256,-0.25230604,0.06777005,-0.37535408,-0.33480737,-0.19126639,-0.17573641,-0.40431747,0.27173394,0.2603964,0.5625686,-0.17311315,0.08782328,-0.1745903,-0.20375583,-0.25173843,-0.25645837,-0.34467584,-0.13411036,-0.33501515,-0.01705861,-0.09671243,0.18290699,-0.6984695,-0.554739,0.0203398,-0.7256711,0.3082363,-0.19545141,0.53957444,0.3020923,0.40959886,0.3061858,0.15011545,-0.18942726,-0.04756494,0.4722281,-0.44170445,0.15131177,0.04656648,0.45842832,0.31540498,-0.09015721,0.07782611,0.10763355,-0.13416332,0.24579988,-0.49529627,-0.36984047,-0.16993429,0.28414148,0.4342602,-0.71948534,-0.11776189,0.49178317,0.25873956,0.50473493,0.43691242,0.3444949,0.14903636,0.6658192,0.78421247,0.6668587,0.3025419,0.20478965,-0.42216364,-0.1686951,-0.16514322,0.0754789,-1.0890672,-1.1607193,-0.33872572,0.8326815,-0.14700098,0.43791303,-0.47361904,0.39741337,-0.33603922,0.45620874,0.02355481,-0.5548569,-0.4943661,0.6770967,0.10604411,0.05183465,-0.13419826,-0.43120584,0.08582237,-0.9779539,0.39833233,0.08866483,-0.2007585,-0.13906702,0.5430661,-0.46152064,-0.06937113,-0.21025343,0.41967016,0.08128884,0.7419798,0.36704955,0.3581757,-0.508611,-0.02419557,0.9040231,-1.0165267,0.90444314,0.6066976,-1.0530939,-0.2387654,-0.7190207,0.17972861,-0.4998943,0.94436324,-0.3601791,-0.45931277,0.1375027,-0.92361087,0.21162656,-0.27958634,0.9572682,-0.8112578,0.31267524,0.32991156,-0.5167671,0.5126706,-0.85840875,-0.11177677,-0.3195991,-0.34876356,0.13361357,0.47149613,0.15817963,-1.1994854,0.24003462,0.34248078,0.52928627,0.13594532,0.43245995,0.7987446,0.27544296,0.4292708,-0.5287443,0.05968174,0.9674112,-0.67153704,-0.83885264,0.60266614,0.42440864,-0.34723115,0.17874813,-0.3059077,-0.09841882,0.21047246,0.31805164,-0.01649364,0.3482162,-0.7574279,-0.07640892,-0.5865845,0.39601964,-0.06209611,0.6204846,-0.1977534,0.10180571,0.21124822,0.12770757,-0.35402325,0.559982,-0.44030493,0.17946436,-0.15181845,0.74142385,-0.12844823,-0.2787046,0.26453662,-0.01857602,0.04743216,-0.9291616,0.6809571,0.71258014,0.37597483,0.01582006,1.3095206,0.4854349,0.8359168,0.5730618,-1.1544095,0.16358997,0.5089435,-0.1974202,-0.6999196,0.16795643,0.59739476,-0.26578414,0.3073149,-0.0772972,-0.35698137,-0.55018437,0.79430294,-0.2898746,-0.15276045,-0.04975826,0.5905925,0.61554414,0.35475153,0.09765898,0.76052684,-0.6429542,0.2136039,-0.280746,-0.42625418,1.1371179,-0.28370988,-0.3122323,-0.34207743,0.80553573,-0.73710686,-0.14249608,0.5113297,-0.62207085,-0.37746102,0.5194246,0.61978287,0.39237785,0.6045047,-0.08984086,-0.9803329,-0.0216649,0.25653103,0.35706335,-0.30438575,0.10544024,0.02428435,-0.46215484,0.5516518,-0.07406592,-0.5559622,-0.37256032,0.02634746,0.10415187,0.5942688,-0.5779952,-0.42796004,-0.28635865,0.57326734,-0.41577432,-0.49758703,0.41237015,-0.47534123,0.8591367,-0.53383505
BélaBugár,0.22857117383333336,-0.2979928779166666,0.2851574746666667,-0.13543554466666663,0.31188557303333325,0.7187984840000001,0.3994496788333333,-0.4161781046333333,-0.24725351711666665,-0.4119589246666668,0.4670691553333333,0.12920491583333332,0.07865181066666665,0.4587632282833333,0.028699181049999994,0.45769290983333333,0.41383087499999993,0.6190323410833334,-0.23453200649999995,-0.7538796788483334,-1.1453951866833334,0.10568154399999997,0.2763080396,-0.012130284,0.3422568534166666,0.08706019100000001,-0.26439385683333333,-0.09050119475,-1.1254047803333334,0.2633577918333333,0.6174351303333333,-0.26717210025000004,-0.20568003250000003,-0.6235666575,0.2323824414333333,-0.3302275272333333,-0.2352639048333333,0.4039774404683332,-0.28021364666666665,-0.5717028845000001,-0.14835857499999996,-0.32835035783333333,0.352015425,-0.3788992144833334,0.012364352966666672,-0.56328763525,-0.5435949387833333,-0.13524750336,-0.16310705250000002,-0.282160226,-0.7798284013333333,-0.07373575471666664,-0.03895492599999997,0.2687549763333334,-0.18191856375000004,0.14589378325,-0.60084493725,0.25081065883333337,0.5169745491866667,0.36210041176666663,0.19896160366666668,-0.1405517513333333,-0.6934947399999999,-0.5276229406666667,-0.52862973505,-0.2244560763333333,0.3133889487166666,-0.04690406854666666,0.47815481400000004,-0.26028891216666666,0.27430752455,-0.6456883211666666,0.003335575166666683,0.0070902554999999895,-0.30914080583333337,0.3778809136666667,0.06959871343333336,0.08233166283333329,-0.20848634364999996,0.92455263985,-0.27317804553333336,0.21829728878333332,0.16147647650000005,0.13288637418333332,0.020506453300000033,-0.16369614433333332,0.20476272433333334,-0.1121761612288334,0.12800675133333336,-0.25671148920000003,0.1150860173333333,-0.4918947506666666,0.025143507666666686,-0.6428746708333334,-0.19871156966666667,-0.4787478747666665,-0.12248532993333333,0.06605653969999997,-0.03056943473333333,-0.1644479386,-0.27523244083333337,-0.20127721551666666,0.27690745057666666,0.4413925676666666,-0.4803567583333333,0.3134722780416667,0.11388673175000001,-0.1953615951666667,-0.2688113938333333,-0.10714980133333334,-0.2832536391666666,0.5965410176916667,-0.33241229766666663,-0.16312023283333335,0.08723674925000002,0.7040505383333332,0.22936649611666668,-0.8787099499166667,-0.5340688705,0.08825583066666669,-0.03240899166666665,-0.33673871281666673,0.25475284866666664,0.03066243399999999,0.46698572603333327,0.6060425199999999,-0.46017725628333334,0.0655655395,0.15427577416666666,0.2712310371666667,0.22083579583333332,0.2729755101666667,-0.016292915833333345,-0.020569480308333346,-0.009319407666666668,0.3556534253166667,-1.0739296571666668,0.25462385211666666,0.4264504039999999,-0.27552526373333336,0.4440848129999999,0.06284356300000002,-0.012703415333333329,-0.48441481233333333,-0.346206462,0.1431596686666667,0.03966261266666667,-0.1472975107333334,0.03515707738333333,-0.06432987916666667,-0.3986287161666667,0.24186600619999998,-0.16538747883333335,-0.724706984,-0.026095325333333374,0.033914941833333316,-0.26882080033333333,0.9031810000833334,-0.45305873064999996,-0.18386800339999998,-0.0814518945,0.2590560255,0.5654200385,-0.4787993108333333,0.6018417284333334,-0.3195520195,0.28033342050000004,-0.33826942466666665,0.1947563876666667,-0.52434495,0.33080294925,-0.10941568316666665,0.11410626183333333,-0.2361717645666667,-0.13369431533333329,0.037447710833333314,0.27290154949999995,0.6936056953333333,0.6740982474833332,-0.2977223136666667,0.6125928261666667,-0.2865244682166667,0.678065143,0.04770714116666668,0.13244151215000002,0.2452189298333333,0.22038760750000005,0.008726795333333334,0.3343436712666667,-0.010439540499999992,-0.5374452396499999,-0.47291484833333336,0.4321722126166667,0.20117958616666665,0.1239389414528667,0.3901941856833333,0.1806612218333333,0.2283999366666667,0.5210961003333334,0.1307667052166667,-0.12482568846666665,-0.14935013066666666,-0.31621497898333334,0.3067806831666666,0.13339195950000002,0.1922607651666666,-0.109497136,-0.44779536916666657,-0.13674574266666664,0.1379464983333333,0.5026563411666667,0.22985778066666665,-0.5267203321666668,0.11118027413333333,0.25790813538999996,-0.19646584951499999,0.18467123066666666,0.16293666050000002,0.012124001333333351,-0.012452124000000004,0.06612549416666665,-0.16081613675,-0.5833615563833333,0.54417231245,-0.1558512786833333,0.3932898646666667,-0.7835225729666666,0.21549870984999994,0.30959882755000007,0.2357321731516667,-0.5056435529966666,0.021134598833333323,-0.41201038433333337,0.5333888821666667,0.07152902206666667,-0.5039568633333334,-0.17444857199999997,-0.23795808963333331,0.4979081283333333,-0.2890749501666667,-0.44034159916666665,0.3201502253333333,-0.4674019860000001,0.42696456766666663,-0.15241570618333336,0.33821567049999995,-0.8140467261500001,-0.05221251640000001,-0.2662843071666667,0.424684114,-0.1457654028333333,0.3003396518333333,0.0015381683333333628,0.10360311299999998,0.1021938655,0.4894090393333333,-0.7546526662666667,0.11135829100000001,-0.02682112937333334,0.2034921731666667,0.635388962,-0.31054176575000003,0.37031418850000003,0.4377044626666667,0.39872586216666667,0.27733949616666664,-0.017807152883333326,0.16063896284999998,-0.3722627969166667,0.8430037116666668,0.02621581774999998,0.09654798663333335,0.21153910097666664,-0.11109203583333337,-0.2826592378050001,0.07091253281666667,0.04730810001666669,0.03416104100000001,0.6577613215000001,0.06488963428333328,-0.24188057102616667,-0.046440852666666615,0.20244931749999998,0.5668574869999999,-0.6470504295,-0.07280872351666669,0.29322401016666666,-0.6947221435,-0.20767173383333337,0.5625167223333333,-0.4053909604999999,-0.22197291516666665,-0.3310348982116667,-0.06996320033333335,0.06089296299999999,-0.1627428268333333,-0.04637563866666666,-0.11634007017000002,-0.46855200860000007,-0.6302774433333335
PavolHrušovský,-0.19504599,-0.42258363,0.5779968600000001,-0.059633327500000013,0.14231483250000002,0.38863187750000006,0.9477710425,-0.07933970750000002,0.44328687,0.24671891999999998,-0.14785980499999998,0.5595071097275001,-0.14420113249999997,0.050832569999999994,-1.2508154525000001,-0.023688084999999998,0.21189064874999997,0.2514001575,0.0644146425,-0.7861749775,-0.5523275774999999,0.7064348525,-0.5565142075,-0.38018485750000003,-0.14589330499999997,-0.32368161,-0.024253762500000026,-0.37847214249999994,-0.8500328875000001,-0.44206368250000005,0.183172255,0.05037816749999996,0.3055243275,-0.3863931725,0.06442808250000001,-0.215824005,-0.28677895,0.1842893125,-0.2868716525,0.061786114999999975,1.057670115,-0.48673114250000005,0.53779735,0.009903167499999976,0.4869709299999999,-1.0430133050000001,-1.144972625,-0.5367085025,1.0964823049999999,-0.44929931,-0.261038125,0.30820527249999996,0.001924849999999978,0.8305988125,-1.00874715,0.1395799125,0.14076236749999999,0.1489345,0.32832529000000005,0.05071891249999999,0.1259423915,0.5877551625,0.13454916250000004,-0.8010091000000001,-0.33198642750000007,0.07046209000000003,0.41276551,0.13887533999999999,0.3740669425,-0.44674443750000004,0.06793158250000003,-0.8723663675,-0.34268207,0.7956433775,-0.48204919500000004,-0.15119057749999998,-0.7449805125,-0.7027505749999999,-1.0870661799999999,-0.15630348499999996,-0.9461512675,0.0001429980000000053,0.18272118,0.431550155,0.23515462249999997,-1.07570535,0.152727485,-0.35192441,-0.09445334750000002,0.0934035275,0.502937498225,0.3768036025,0.6879789425,0.002320125000000006,-0.06709694999999999,-0.9955863775,-0.4586900875,-0.8744349325,0.6851197099999999,0.6519217025,-0.572560015,-0.39675804000000003,0.400231745,-0.1642466875,0.4533057,0.0797291025,0.838115795,0.24973762500000002,-0.16390598250000005,0.13031150249999998,-0.25913369499999994,0.26582469500000006,-0.4241201050000001,0.016179527499999978,0.3333013225,1.4302297725000002,-0.2310579675,-1.16092435,0.5540227175000001,-0.44752448,-0.3099926250000001,-1.35662349,-0.046541567500000006,0.08048034999999998,0.18024916500000004,0.059096362499999916,0.3860112175,0.0388766175,-0.29658313500000005,0.075218387,1.019951275,-0.295972341725,0.6129447975,0.11617909499999995,-0.6002536749999999,-0.315242585,-0.5935300124999999,-0.7493005825,0.10762960000000005,-0.7409884625,0.20214377499999997,0.008359535000000001,-0.49075932749999995,0.028561377500000013,-0.5794046174999999,0.9066914125000001,0.15702320249999996,0.011224335000000085,0.07923201500000002,-0.44866073000000006,-0.05665770000000003,-0.11072260000000002,-0.04607976250000001,-0.709241185,0.13777763249999997,0.30838532625,-0.24180241749999998,0.20608242999999998,0.9154491450000001,-0.041909127500000004,-0.0712062425,0.7354109599999998,0.28351977500000003,-0.27114902500000004,0.08852751500000001,-0.26134231500000005,-0.36976171999999996,-0.357746405,-0.17828327249999998,-0.958055815,0.6283184925,0.37525571999999996,0.7234804075,0.43279336,-1.0585640175,0.217545485,-0.06413925249999997,0.37598141500000004,-0.22806376750000001,-0.14959214999999998,0.5056072575000001,-0.24761414500000006,1.2355077075,-0.52501679,0.5128906999999999,0.06125127749999999,-0.465575225,0.11655887750000002,0.7699942424999999,0.49386315000000003,0.29412515000000006,0.24280819499999998,0.18459005250000005,0.5537834225,0.13944789,-0.3249500125,0.487300835,-0.425536645,1.1028159849999999,-0.3431993175,-0.21270141500000003,0.28186363500000006,0.18408711249999998,0.31612584750000006,1.0938175325000001,-0.32850342000000005,-0.26658797,0.648634905,0.4142992649999999,-0.21373564750000001,0.7132860324999999,0.17490099,-1.45414126,0.3250211875,-0.10910062500000002,-0.23959389424999997,0.3324605225,0.021170485000000017,0.91535967,0.506114235,-0.068375967225,-0.2799769,0.056782038499999965,0.719682975,0.42991956,-0.016207830000000034,-1.84054356,0.496265095,0.7613758,0.6440939025000001,-0.19702485749999998,-0.23268695250000004,0.20415116750000004,1.8288086749999999,0.3335957375,-0.06546147250000002,-0.21825908500000005,-0.8136711500000001,0.17715229,-0.1485172225,0.517446535,0.23010139750000003,-0.6589813975000001,-0.5182956900000001,0.30710980499999996,-0.97532369,-0.42194878999999996,-0.10676175499999996,0.09209505,0.8285616249999999,-0.51664073,0.009249623749999936,0.7634992625000001,0.08465169999999995,0.3031953625,0.6849317149999999,-1.164922645,0.07302858749999999,0.13885604500000004,-0.5950884274999999,0.3780818374999999,-0.6180351275,-0.08649588499999997,1.2062285799999999,0.167891955,-0.6959070125,0.538872705,0.25498178000000005,-0.03368541000000003,0.6754147699999999,-0.3128700875,0.71763645,-0.023949385000000017,0.14095317250000003,0.0755694825,-0.08963575725,-0.24348179499999995,0.2611357525,0.94064146,-0.017640657500000004,0.7943815375000001,-0.3538856125,1.0532714075,0.9593419525000002,-0.2551001224999999,0.14798455250000003,-0.34557750249999997,-0.57375395,-0.40265858499999996,1.2552784575000002,-0.64357877,-0.535670455,-0.7442768015,0.5912969100000001,0.23794601250000003,0.3127315125,-0.06322033499999999,-0.8911001375000001,-0.06432393249999999,0.1649670625
Dzurinda,0.83054328,-0.153237298,1.3429718,-0.33797276,-0.166165188,1.16785181,1.68333423,0.394036293,-0.192526072,-0.099153921,-0.375955641,-0.161082938,0.29553178,0.441189647,-0.0836245865,0.828103006,0.290100068,1.00061703,-0.306424409,-2.33262634,0.108647205,0.715262532,-1.07075644,-0.322711825,1.17717946,0.693896413,-0.49361378,-0.496688694,0.663389146,-0.264407098,0.363556087,-1.04268909,0.57411927,-0.418323368,1.13783693,-0.320380002,-0.309087962,-0.177790508,0.15696241,-0.914544523,-0.530946493,-0.165015638,1.49896729,-0.191641808,0.264903426,-0.449082911,-0.658056438,-0.369383156,1.56765115,0.463459074,-0.511508465,-0.717984915,0.318247139,0.724225998,-1.47686338,-1.11709177,-0.647573113,-0.325193137,1.2518779,-0.0831817314,0.192921594,0.125422314,-1.71932733,-0.705159545,-1.17333376,0.577085018,-0.0203392394,-0.580840588,0.403498441,0.977270126,-0.35999769,0.465839446,-0.323661625,0.0912778527,-0.511115491,1.36336744,-0.733433604,-0.91486001,-0.745681942,1.85255992,-0.475019395,-0.102189116,-0.934517562,-0.440498084,0.437936604,-1.88769579,-0.401561469,-0.310010731,0.296095848,-0.722104669,-0.582417965,-0.779963374,-0.671253741,0.342757016,0.145852253,-0.479227602,0.48225829,-1.19391072,-0.0835002735,0.602586031,-0.919422448,-0.43531242,0.495204121,0.963898778,-0.341680467,-0.430297881,0.0814087018,-0.67252177,0.0870034546,0.8417449,-0.153946087,-0.283848643,0.325139612,0.459169328,0.290188134,0.0879778564,0.353213578,0.120197587,1.1213814,0.761559904,0.574567735,0.776052594,-0.572664857,-0.492998809,-0.265711486,-0.0272516944,-1.01386321,0.0170790553,-0.881144702,-1.00385678,-0.188326761,-0.605544448,0.651785135,0.2383596,-0.346739411,-0.290458202,-0.784693718,-1.7208612,0.747932017,0.581906199,0.797221363,1.55041707,0.372603029,-0.489585042,-0.0176688023,0.420873106,0.0454031043,0.782790482,-0.325860739,-0.33933413,-0.0460802466,0.619278669,0.542211711,-0.822435141,0.23540087,-0.401969701,0.704470813,0.105554983,-0.716144145,-0.459857106,0.996318519,1.1385299,0.246873438,-0.525053203,0.13332586,-0.798587501,-1.48313642,-0.0540612936,-0.166802421,0.0308564082,-0.24072817,0.711540878,-0.331135333,0.965258479,-1.12115097,1.23364305,0.210708886,-0.859430373,0.212971434,-0.309097499,-0.244376168,-1.15835059,0.641476214,0.276217014,1.73645449,-0.0486248173,0.284246445,-0.714673936,1.13136351,0.492175639,-1.12855482,1.49753928,-0.525840163,-0.144691303,0.0143696461,0.000231948972,0.889984667,-0.0949336663,1.01214516,-1.72448647,-0.0331080146,-1.57422221,0.989857197,0.805286884,0.172662064,-0.966585994,0.528065383,0.222498566,0.78331691,0.168170452,-0.946286857,0.147112474,-1.26421165,-0.795534492,1.55397463,1.1189779,-0.248366311,0.966766357,-0.907773614,1.79572177,0.071959272,-0.165012896,0.568832874,0.717959583,-0.164830104,-1.08602953,-0.490209073,0.259775668,0.869888902,0.00684233103,0.675028026,-0.154497847,0.47156024,0.940929055,-0.14833042,-0.414063901,0.61705792,-0.876702905,0.495202035,-0.777119696,0.250120521,0.196812198,-1.44993615,0.0588985309,0.113765731,-0.330143362,-0.987459719,-0.21487467,0.301085293,0.285563767,-0.199786916,0.528137922,0.857891381,1.04359937,-0.216879636,-0.228075281,-0.879086673,0.476700008,-0.625343144,1.11830652,-0.232666656,0.800737977,-0.0322366245,-0.0929636583,-1.07821441,-0.860761464,-0.47026971,1.12654769,-0.0183272157,0.843237519,-0.839547038,-0.0689034536,0.071169503,0.206818461,1.04296589,0.0788358822,-1.1363306,0.0804553479,0.287897855,-0.836283624,0.319394141,-0.478478819,-0.133603796,0.998830318,-1.29339695,0.500614345,0.678051651,-0.976448476,-0.967121899,-0.284971654,-0.164551541,-0.691183686,1.27509069,-0.197248995,-0.492490739,-0.51579833,-0.897112072,-0.435910076,0.599694788,-0.111635491
Csáky,0.202301204,-0.17664735,-0.0138403866,0.0620122887,0.0575780906,0.794961214,0.794388473,0.35481438,0.0435166694,0.0342497863,-0.142978653,-0.0880344063,0.47363013,0.399735987,0.221936837,-0.116491623,-0.581429541,-0.0875435174,0.347255081,-0.247768596,0.328653008,0.2445627,-0.0529242568,0.399059504,0.253164917,0.386777431,-0.300158083,0.222220212,0.380869478,0.0943014845,-0.15132831,0.326259583,-0.0781600177,0.347712874,-0.0253479294,-0.677430272,-0.435748935,-0.265146703,-0.354687124,-0.659154058,-0.10695041,-0.109535582,-0.00691187102,0.110108897,0.213205367,-0.19563283,-0.264837444,1.04119956,0.401834637,0.755566061,0.0465343148,0.0181380678,0.43509981,0.365204662,0.371044576,0.113295816,-0.735450029,0.31918326,-0.450274497,-0.52766484,-0.330776036,0.692062438,-0.190231577,0.15444313,-0.256404072,0.318082988,-0.133860335,0.0600275137,-0.161925882,0.210882559,0.243979245,0.114991322,-0.365914971,0.174232796,-0.30023393,-0.460254312,-0.09242744,-0.743993461,-0.195357248,0.591064572,-0.905861199,0.482329041,-0.457362086,-0.195820749,-0.410480708,-0.234612599,-0.00475503318,-0.205032453,0.246331334,-0.780896246,-0.927228749,-0.465586603,-0.266671747,-0.395795733,0.277636707,-0.123251341,0.20718278,-0.0184037387,-0.151138976,0.175336018,-0.670290053,-0.402623206,-0.455822915,-0.372184575,-0.656747818,0.0979887545,-0.573282063,0.238709778,0.460217446,0.492059737,-0.0116487667,0.164200053,0.343941867,-0.282222509,-0.257018596,0.837299824,0.10242676,0.207642883,0.354968965,0.608448684,0.563186884,-0.250376612,0.391831696,0.0923071876,-1.07567525,-0.473744959,0.214990288,0.084161967,-0.202619687,-0.457222193,-0.32403338,-0.751816332,-0.664563358,0.0818898603,-0.608540952,-0.529200613,-0.974217653,-1.1265744,0.85885179,-0.132219449,-0.343461484,0.709931493,0.484342575,-0.499151558,-0.243622527,-0.19604066,0.102470666,-0.153083995,-0.247661144,0.194177568,-0.0772302598,0.770196676,0.146133929,0.205096304,0.347210705,-0.38363418,-0.0273926221,-0.277608871,-1.01011455,0.189209402,0.266047448,-0.148175687,-0.21952647,-0.778401792,0.0953395516,-0.147512779,0.275886446,-0.285732716,-0.0865764245,-0.731271267,0.242889911,0.284580678,-0.133654609,-0.121475831,-0.0459942631,0.661068022,0.71612978,-0.179597899,-0.873675048,-0.579493046,0.167908594,-0.0191998016,-0.0406155027,-0.0485810935,0.373257399,-0.265793383,0.338978857,-0.445578545,0.404304147,0.186356604,-0.0424248166,-0.366981775,0.212938473,0.345402062,-0.610343039,-0.934411168,-0.463792324,0.420638144,-0.114156887,-0.223198786,0.0955851078,-1.06764531,-0.31283322,0.595702052,0.334806234,0.223034099,0.00099576544,0.531508744,0.541072428,-0.00515716616,-0.341319174,0.313131511,-0.147506312,-0.108496219,0.396821767,-0.250015378,-0.836652517,0.805384636,-0.332542896,0.498659313,-0.344669193,0.458065331,-0.555182397,0.622864723,-0.377494901,-0.416173637,-0.236471921,0.00774022983,0.116050445,0.512160599,0.0389969014,-0.0399853401,0.28812629,0.283238709,0.221410707,0.905310333,-0.452497125,-0.996788263,-0.031786263,-0.229052976,0.0959337503,0.374988347,-0.774276733,0.157821476,0.745580256,-0.557946503,-0.51188904,-0.286887378,0.0601335317,-0.00777879916,0.26365599,-0.140414745,-0.121812738,-0.396591246,0.278312355,-0.535230637,-0.822422445,-0.322047353,0.561426222,-0.00842626859,-0.782412529,-0.0509094261,-0.477262557,-0.0124874189,-0.0485966541,0.455454022,0.0747308582,0.00435198052,-0.0869426727,-0.22407496,0.274072528,-0.633000195,0.167816937,-0.302790493,0.424460083,-0.178991243,-0.655201375,-0.288843513,0.287724048,-0.197461724,-0.105222896,-0.0461020134,-0.606630027,0.658552289,-0.575177014,-0.0171474963,0.566931963,-0.39334023,-0.421521336,-0.710347533,-0.24270694,-0.0879938751,0.242293745,-0.0057498957,-0.95844245,-0.817831278,-0.38009125,0.439216793,-0.00767996581,-0.13967894
IstvánHarna,-0.152547881,0.26789695,-0.00596894883,0.0546512194,-0.024605697,-0.227960423,-0.477422684,0.311665982,0.147233501,-0.0793998688,-0.153271392,-0.265485466,-0.117248543,-0.119542815,-0.220429048,0.177233085,0.424272448,-0.221430346,-0.180428609,0.358548731,-0.11071334,-0.292217523,0.0485601649,0.0942020044,0.0479939394,0.0831567422,0.16745469,-0.347104102,0.356838584,-0.0299333073,-0.569023132,0.111045063,0.0938013718,0.0717778355,-0.44990778,0.226043344,-0.135374621,-0.15634279,0.123162761,0.216182604,0.206460834,-0.00296694529,-0.102880783,-0.200146601,0.0728472024,0.242979586,0.073069796,0.0653180778,-0.0689115673,0.0920059085,-0.313470125,0.525806189,0.024030298,-0.268252283,-0.209843636,-0.131060302,-0.141620591,-0.032964766,-0.439819962,0.0155331772,0.0463052392,-0.0671619251,0.0396342874,-0.0301185772,0.514565468,-0.284110099,0.190349877,-0.019347107,-0.373753756,0.0296260547,0.376166254,0.501107395,-0.0140745556,-0.0917674974,0.379050642,0.188771024,0.324060798,0.127748296,0.465887696,-0.108111382,-0.0166024491,0.000394876028,0.446253151,0.215739712,0.186695561,0.221343264,0.109323569,-0.162703827,-0.354101568,0.0350141041,-0.0973852426,0.00755977165,0.0521528162,-0.133174747,-0.0230032019,-0.077648513,-0.292715847,0.353909254,-0.152413726,0.241507396,-0.153340772,-0.0443873294,-0.302696615,-0.17580381,0.316839993,-0.130189136,0.0781639591,-0.109241411,-0.547174335,0.154497162,-0.0091222981,-0.146610826,-0.212011442,-0.0319780856,-0.108802162,0.153564364,-0.0355057716,0.264154375,-0.255459249,0.0201205313,0.0206068754,0.184964299,-0.0960476622,-0.150363877,-0.152697265,0.532907069,-0.161218494,0.21070379,0.284629911,-0.159300044,0.297241151,0.0470604114,0.310796231,0.181674242,0.341169477,0.14691402,0.443041533,0.59260428,-0.342219234,-0.0917399824,0.0627988949,-0.152671099,0.0525224432,-0.114361763,-0.163416326,0.402276188,0.23739697,-0.174854144,-0.0858867094,-0.363984734,-0.149112597,-0.26562044,-0.0630731359,0.196906522,0.229476422,0.437642127,0.387768805,-0.157854989,0.194601908,0.026290983,-0.194800556,-0.0408755429,-0.15198414,0.312798947,0.0430539064,0.407045543,0.0684207305,-0.0187568627,0.184824944,0.26455906,-0.35112372,-0.148033038,0.446673512,0.00428450527,0.0769920573,0.0215372145,-0.133209288,0.23374933,-0.216363892,0.182816938,-0.074671641,0.534970164,-0.26123482,-0.0505690239,-0.18869172,0.180167019,-0.2995134,0.164452568,-0.134088963,0.023147177,0.0941369832,-0.0695067048,0.350821555,-0.0150692277,0.0954053551,-0.072447814,0.133311763,0.049913086,-0.204954445,0.0991994962,-0.0750374943,-0.00622207392,0.0712578595,-0.316063851,-0.297590524,-0.41725266,-0.126861289,0.287198842,-0.00382491457,0.0136964815,0.112300731,-0.218638539,0.0537946969,-0.20064722,-0.247300878,-0.00204818742,0.174424246,0.0115138711,0.261342734,-0.288701594,-0.0446876995,-0.153439775,0.0104666837,0.214494362,-0.017344635,0.201870501,-0.178750888,0.0427397303,-0.114834815,-0.167832121,-0.094869487,-0.128890216,-0.170527577,-0.0229211468,-0.102323651,0.270791173,0.230196193,0.248906881,0.0359738767,0.126614973,0.15844132,-0.316817671,0.276080191,-0.411163568,0.0849116594,0.304863155,0.0916615278,0.10589879,-0.0739059076,-0.0713966265,-0.0574325398,0.379337192,-0.005829826,-0.372724414,-0.0991225913,0.0967820808,-0.0189464763,0.115869135,-0.0540480278,0.0114285061,0.157908037,0.0329218358,0.00983583275,-0.0444945469,0.281190097,0.209199816,0.0277388152,-0.0865932852,-0.203472212,-0.104570054,-0.314141959,-0.134522721,0.0974827185,-0.10417372,-0.132841095,-0.0485008694,0.398998708,0.0179188792,-0.246044472,-0.0611160211,-0.121941268,0.044789061,0.126403466,0.0446444862,0.203480661,-0.0445166603,-0.0306107793,-0.0268354509,0.444581032,0.333633751,0.0551929995,0.022692902,0.171386182,0.021921413,0.0219289903,0.181376696,0.15617761,0.23019506,0.19701907,0.21606487
Kukan,-0.37547615,0.5769129,-0.14018749,-0.6197717,-0.54140234,0.8321662,0.9476037,0.69881314,-0.06499241,0.8538933,-0.797537,-0.14160198,0.9008501,0.0863498,0.5447672,-1.0298107,-1.1631566,1.5883169,0.49784344,-0.3771161,1.247107,1.948923,-0.5185182,0.1078752,-0.35289636,-0.08536776,-0.4343534,0.4311726,0.4119942,0.16341263,-0.68309516,-0.31526124,-0.21328588,0.5703037,0.68781126,-1.3556496,-0.54869014,-0.3387212,-0.22823657,-0.78432196,-0.5499693,-0.33422458,0.93491715,0.6032403,-0.9394474,-0.9078606,-0.04836842,0.08374968,1.1378239,0.8395404,0.11074048,-1.0852188,0.38817054,0.01295756,0.38624984,-0.7765505,-0.08954995,0.5397371,-0.8031907,0.39609957,0.42115936,0.30169603,-0.9819221,-0.71383834,-1.5364723,0.85450405,-0.28466862,-0.66574234,-0.5466906,1.2603459,-0.15652718,0.17594343,0.44844556,-0.28898832,-0.580958,0.5123493,-0.41814935,-1.1689441,-0.12434637,1.3479985,-1.0948457,-0.7260537,0.11373631,0.03994671,-1.0954279,-1.4367762,-0.27509943,0.44435778,0.7767178,0.01707642,-0.7991997,-0.7689131,-1.0136174,-1.1210574,-0.6553813,0.05197707,1.20604,-0.38352054,-0.03123078,0.20332186,-1.4249374,0.6150401,0.20181361,0.85331595,-0.5325158,0.38383517,-0.65892905,-0.15878426,0.38793203,0.38635367,0.42968515,0.06364654,1.2275481,0.02071274,0.10833082,1.0859016,-0.73362935,0.3197098,0.29405555,0.7905461,1.8207605,0.928899,0.17725055,-0.15302569,-0.5899382,-1.3558154,-0.32320616,0.5398,0.11557829,-0.80288196,0.5127743,-0.06812486,-0.55578387,-0.20948552,-0.21062173,-0.8245094,-1.1063282,-1.0174865,1.0329875,-0.23701718,-0.3293949,1.1604588,-0.33847746,-1.1005149,0.33560315,0.60287386,0.7905403,0.25504807,-0.0274712,0.58109146,0.60395145,1.5342693,0.7353995,0.28538567,0.7553234,-0.14867368,0.14215142,-0.6449217,-1.819368,-0.26488164,0.42574367,-0.2819578,-0.27621496,-0.53605103,0.63365537,-1.0329981,-0.25115088,0.4642241,0.36426106,-0.48497754,-0.7512708,0.45861906,0.06081378,0.777053,-0.9353693,-0.29332772,0.92703205,-0.71894807,0.14762592,-1.3866812,0.721397,-1.2315668,0.73875916,-0.10790343,1.4669611,-0.55306655,0.2889838,1.0193404,0.9895619,0.22504513,-1.2446222,0.51623136,-0.17729574,-0.8280803,-1.1409104,-0.5538452,0.65395,0.7137679,-0.79080397,-0.6868287,-0.28707317,-1.5553749,0.12925357,-0.24551578,0.9861258,0.1667593,1.7470213,1.2268604,0.23195928,0.442764,-1.5976217,-0.63244194,0.08392472,-0.74096686,1.1727183,0.7962462,0.76450527,0.42623937,-0.6658735,0.798306,0.5608302,0.083937,-0.41587898,-0.31838313,0.3680104,-0.7558658,-1.0783181,-0.3617546,0.2739663,-0.2592399,-0.37774456,0.8032495,1.2360929,0.8545775,0.06414838,0.6436809,0.12619999,-1.3514161,0.5810775,-0.4706634,0.7259326,-0.30561033,-1.0260726,0.46051913,0.9793501,-1.3270109,-1.4730902,-0.36865348,0.33329165,-0.3368196,0.29325572,0.9911666,0.5032637,0.29033646,-0.9088764,-2.0285258,-0.1643386,0.24137095,-0.2839351,-0.7789597,-0.70655483,-0.29877684,-0.710958,0.36680922,-0.30913574,-1.140459,0.42830026,1.059267,0.08000074,-0.5797027,-0.09713914,-1.1109256,0.93526584,-0.4010027,0.6112244,0.06775566,-0.06485994,0.43388277,0.22990867,-0.47157738,1.0343136,0.30314714,-1.1500026,0.8274263,-1.725295,0.468992,1.8976978,0.24462378,-0.44956258,-0.33865377,0.17596242,-0.3315401,0.36462173,0.05440201,-0.60823196,-0.71588224,-0.7904731,-0.38103387,-0.00370412,-0.28855032
Miklós,0.11403168,0.693475783,0.39509508,0.395736039,0.260079712,0.333655447,0.131427437,0.122797117,0.491916478,-0.12775971,0.257043719,0.175065264,0.302003175,-0.0273917913,0.092525661,0.242983386,0.236830398,-0.558282554,0.40349406,-0.403602421,-0.0389112011,0.236113608,-0.359852552,0.523974061,0.999361455,0.275296777,-0.627224803,0.178544596,-0.367195189,0.0894634798,-0.0806552246,0.223916531,-0.617255092,0.336319536,0.366709262,-0.015486801,-1.35307527,0.091226995,-0.15594098,-0.310140371,0.124483272,0.253739297,-0.60584569,0.862676024,-0.128976196,-0.34991625,-0.979494154,0.595166326,-0.508245885,0.541012347,-0.314291567,0.739641249,0.402349919,0.0514156818,0.453205347,-0.221140131,0.209862426,0.403518766,-1.14875734,-0.252297282,0.20194228,0.5607813,-0.568349957,0.201268747,-0.148156807,-0.355735958,-0.0891957134,0.0403893813,-0.157622784,0.489147186,0.197256863,-0.563601255,-0.304160535,-0.174854353,0.0714990348,0.0150065012,0.33479318,-0.479681611,-0.0932527408,0.22830224,-0.245521307,0.881178498,0.565419316,0.107910343,-0.397536129,0.0997997746,0.560308099,-0.196713343,-0.277912289,0.0259349812,-0.780937314,-0.41012457,-0.0599721856,-0.600292921,0.747713566,1.00420141,0.151484966,0.807623088,0.00176950521,0.0326776244,-0.258196563,-0.199491322,0.168613777,-0.942770541,-1.50061369,-0.48835513,0.144738585,0.295120031,0.186988086,-0.0397309661,0.0660122633,0.750199258,0.287498325,-0.446153253,-0.348341197,0.983228207,-0.114516936,1.17143738,-0.777900219,0.915982425,0.362786233,0.467895329,0.4998326,0.373591691,-0.238394499,1.11972785,-0.706051528,0.193288013,0.228334531,0.0757955462,-0.0630178079,-0.239979506,-0.582759678,0.39219889,0.152728051,-0.120422609,-0.645953894,0.472254366,0.544560313,0.656728446,0.259522647,0.111607142,-0.535907984,-0.446513206,-0.294771254,0.911144137,0.639755666,-0.0292795636,-0.245343611,0.517113149,-0.115942255,0.148967415,0.319846064,-0.352831781,-0.0113151679,0.272413224,0.572388828,-0.307687551,-0.353334039,0.00441526109,0.0308313016,-0.63281697,0.360642999,0.383928537,-0.390073657,-0.309844494,0.691529095,0.691169679,-0.0513400212,0.143571973,0.0399044231,-0.52522558,0.366395801,0.451140225,-0.166891396,0.686312139,-0.0676326901,0.534544289,-0.613656044,0.0758174509,-0.171702653,-0.310630798,-0.323148251,0.502625763,0.81464088,-0.105374247,0.0368860886,-0.00128607592,-0.414760232,0.305353522,0.172078535,-0.746633112,0.745294869,-0.0291572455,-0.442011535,-0.521150112,0.256624877,0.599143326,0.255955338,0.149823993,-0.490572959,-1.13811946,-0.176902086,1.2371428,-0.429032862,-0.206425935,-0.937603295,-0.445236295,0.952677786,-0.341570437,-0.174077302,-0.166700289,-0.270036072,-0.128717348,0.416848481,0.207156926,-0.608432055,0.876152992,-0.0558707938,0.223801062,0.0594063662,0.128562212,-0.169439405,0.791581213,-0.729260743,0.570985019,0.270653784,-0.677347124,0.737640858,-0.131247655,-0.390672565,-0.503731489,0.227959365,-0.377780825,-0.487174541,0.44608289,0.872332096,-0.0663589537,0.0718209669,-0.30749616,0.436066061,-0.380851388,-0.631386697,-1.02935731,0.229162052,0.128496543,-0.348922014,-0.0369811468,-0.077866666,-0.319464803,0.0329814777,0.67379266,0.308742136,0.392059416,-0.296708792,-0.0849197879,-1.01096809,-0.227559313,1.39727163,-0.671449542,-0.386612415,-0.674035192,0.210412055,0.543203294,-0.0308442879,0.260248542,-0.486906081,0.393342376,0.178758129,0.377399385,0.522684813,-0.0517019294,-0.557103276,-0.459161669,0.573149025,-0.0135350004,-0.668506861,-0.683527529,0.810667872,0.801709592,-0.11267636,-0.208814725,-0.0175361242,0.110002927,-0.455126584,0.269153625,-0.458986044,-0.700491548,-0.0454590842,-0.322561949,-0.263345957,-0.285813957,0.517389834,0.621243,-1.26111448,-0.659051657,0.509784043,0.0137715191,-0.664399564,-0.445605725
Mikloš,1.5688403,0.54559004,2.0260012,1.27503,0.94155127,2.198533,0.5064923,-2.0538156,0.48942158,-1.7775028,-0.7061757,-0.9025681,0.90785205,0.40918896,-1.5965922,-0.33952937,1.7965375,-0.2206265,1.0382019,-0.63493377,0.2364476,-0.82722825,0.7196395,0.97895676,3.4444633,1.0723264,-0.11306033,0.08949301,-1.7269826,0.58881783,1.7469245,-0.8824717,-1.4926023,-0.12464241,1.4417206,-1.6482626,-1.0821974,-0.47281626,-0.14382608,-0.72329813,1.2837106,0.69474727,0.38400784,1.7706896,-0.9353607,1.6943679,-2.0186145,0.2628166,1.0294948,0.16936249,-1.6980952,1.2191635,-0.9460239,-0.34853223,-0.2445327,-0.18525116,1.2152886,-0.83195597,-1.1223991,0.51125526,2.4915311,2.0134592,0.83355606,-2.1805685,-2.137448,-0.33394518,0.9767586,-2.25374,1.5077943,-1.504636,-0.23455426,-0.55966246,0.03109877,0.01126578,0.9628855,1.291089,0.10840712,-0.22060423,-0.40470162,0.06549948,1.2517886,-2.7893343,-0.0257494,1.4252788,0.7479097,-0.67142344,-0.92125154,0.60528207,1.5684876,0.32822436,-2.011371,-1.7136086,1.026585,1.4747123,-0.08296392,1.0827004,-0.7169102,-1.9860625,-1.097455,-1.0162303,0.66867393,-0.6518173,0.06523025,-0.15857555,0.9911754,0.37575275,-0.63755465,-0.44537443,-1.332855,-1.3142986,1.0003217,0.37950486,1.4641851,-0.11628846,-2.0549507,-0.22957785,-0.60233825,1.6142434,-0.4388648,0.6104992,0.0398667,-0.45482245,0.21132314,0.34398785,-1.1998849,2.5250945,0.6565785,-0.67684275,1.261154,-1.3633366,-0.9651364,2.442536,0.251878,2.5016756,0.29287863,-0.5567482,3.2442725,-0.32822114,-0.48585922,0.9737347,0.81975377,1.442233,-0.27404892,-1.8850313,-1.8218915,0.8438753,-0.77338094,-1.076118,-0.61741215,-1.2349707,0.44448155,-0.598917,1.432689,1.6501796,2.1961634,-0.8345186,1.6464963,0.08504939,2.3062701,0.03520636,-1.0138845,1.1547672,1.045931,1.645503,0.5783495,-0.9076454,1.5423007,1.0966996,-1.0528953,0.7835978,0.94223124,-0.7704188,0.34773242,-0.8986925,-2.3379846,1.0126739,-2.5911913,-1.2448059,-0.33649638,-1.5083034,-0.6176506,-0.8933882,-1.8106323,-0.78899956,1.0713779,-1.1340638,-3.660987,0.15536024,1.0876784,1.3036741,-2.366105,0.30901247,0.6851379,1.0168499,0.48704952,-1.2794343,-0.0363171,2.2085948,-0.2901078,-0.51732606,0.5025963,-2.2042542,-0.5131259,0.75727296,-2.8253024,-2.8232276,0.4077281,-2.3080688,0.49077243,1.8781279,1.4762594,2.4323921,-0.9702446,-0.34501305,0.2841976,1.7892804,0.65215874,-0.0858923,2.1458294,1.2741212,0.68983144,2.215488,0.85842925,1.1146089,-0.6920666,0.79836327,-3.405638,-1.6510967,0.8896489,-0.43462646,-0.11826579,-0.06965417,-0.47894678,2.6596744,-0.10388122,-0.17196962,2.1814044,0.16709562,-1.1462051,-1.0339462,-2.915591,0.04075661,0.35121265,-0.26639405,1.1613051,0.6768803,0.8017522,-0.40512392,0.39190003,1.7711385,-2.563195,0.12259316,0.18945031,-1.909735,1.338999,-0.94053966,-1.8464991,-0.34676096,0.29338267,0.613063,2.4020922,0.3252537,-0.29699758,1.4821681,-0.02092819,0.60210675,1.5596884,-1.7652476,1.8947189,1.5058544,-0.28588554,-0.9280224,0.62388873,-1.8146322,0.41696796,0.04519892,-0.645587,-0.741188,0.0426135,0.43373585,0.0879769,1.123751,0.7636103,0.9435923,-1.7488227,-0.3996961,-3.5463898,1.528624,-1.1089431,1.4057391,-1.8123459,-2.0339487,0.7889502,-1.1523927,0.13330652,1.2369245,0.4905833,0.963843,-1.6361285,0.1552364
IvanŠimko,-0.786617041,0.0477253869,-0.12064065,0.323311388,-0.403682947,-0.172482759,0.969827235,1.15774798,0.133957103,1.06288064,0.253926754,-1.00787079,0.687797487,-0.0543779247,0.464767098,-0.1210334,-0.733182132,1.01233125,0.852115333,-0.507180393,0.410930544,1.21413469,0.145621955,0.255796671,0.329626739,-0.765686095,-1.16493809,-0.0922091603,-0.0292181261,-0.704218924,-0.338352323,-0.858643293,-0.198016927,-1.06619072,0.959402382,0.0899745524,-0.290211618,0.599491596,0.577415884,0.339073986,-1.22337198,0.0353672206,0.925281823,0.453148216,-0.787912369,-0.434929281,0.615322053,-1.37462759,-0.108445115,-0.19974117,0.988238692,-1.18138874,-0.826761723,-1.01133955,0.298456848,-0.497143775,-0.00147706992,0.327601194,0.914879024,0.290380508,0.018351594,-0.7732535,-0.312264353,-0.555203617,0.109671839,0.759892464,0.502527058,-1.06748176,-0.642756402,1.30266953,-0.170058131,-0.243049473,0.948658049,0.839298368,0.155667678,1.41124868,-0.457116514,-0.0321051441,0.724075139,0.403316766,0.81599319,-0.543748379,-0.269317687,-0.721905828,-0.743239284,-1.63274896,0.335058093,0.182456866,-0.0505392253,0.114479147,-0.168686166,0.584220409,-0.69171077,0.164084449,-0.14979817,-1.03017545,0.85138464,-0.423449486,-0.321440399,-0.504653215,-1.19062042,0.782537997,-1.07802129,1.08628678,0.806597173,0.37349537,0.448219419,0.206870824,0.716115236,0.67091614,0.49443391,0.604330122,0.530051708,-0.150136143,0.499363661,0.264323503,-0.566963434,-0.0927593783,0.842937112,0.0505239218,0.48735857,0.954212844,-0.716681302,-0.284480155,0.0028808983,-1.1285975,-0.0974189937,-0.646306217,-0.0605135374,-0.640506506,0.335567653,-0.1439147,-0.216560498,-0.253712624,1.52674437,-0.197957203,0.263494581,-0.0980597213,-0.228374541,0.35023281,0.473022878,0.879233003,-1.05117273,0.43622157,1.06322432,1.29907179,0.150150642,1.40970886,-0.455130637,1.40870285,-0.315209836,1.24212241,0.583235085,-0.0726019442,0.603527844,0.123509698,0.570940018,-0.0432986021,-0.361321539,-1.61411619,0.00424631359,0.818532467,0.0710358247,0.15738219,0.123511061,-0.849155247,-0.634798229,0.799807847,0.013288551,0.835517108,-0.622053623,-0.200569153,-0.151321962,0.984150171,-0.547778547,0.0824057087,-0.192214385,-0.653769314,1.0435636,0.937710822,0.271331102,-1.08774853,0.617312968,0.760521412,1.42493486,0.458658516,0.0272780862,1.38620138,1.00322521,0.103248447,-0.380349547,0.979508758,1.06297565,-0.836511791,0.266088516,1.53220212,0.737191021,-0.724834561,0.164680764,-1.05003524,-0.283468306,-0.353043169,0.493858784,-0.0465189815,-0.114327453,-0.244886383,1.2386831,0.0999748781,0.602891564,-0.783664465,-0.301530808,-0.590104461,0.551169574,-0.512735426,-0.921895206,1.54179811,1.38907814,-0.28490001,-0.723966181,0.941322684,-0.157331243,0.0155375563,0.12071725,-0.517338276,0.766041934,-0.272139609,-0.377839237,-0.535820067,-0.107874796,-0.219543457,-0.256099313,0.367506355,0.598800302,-1.00996923,-0.831993818,-0.134918645,-0.158405811,0.673945725,0.428658277,-0.153133854,-0.0591200702,-0.424569249,0.685149372,0.708755553,-0.457555622,-1.08754563,-1.06767237,-0.442268819,1.06021988,-0.124853313,0.0778549016,-0.481315911,0.550427914,0.189323589,-0.864330411,-1.33015633,0.509408534,-0.139432237,-0.604858518,0.135387763,-0.284708261,-0.0296314284,0.0652855858,0.384215832,-0.461144805,-1.18351769,-0.35392651,0.750350177,-0.325795293,-1.04426122,-0.637301028,0.41943258,0.340551585,0.447838664,0.711388409,-1.17832959,0.265535742,0.675393224,0.782955468,-1.1388613,0.44317472,1.26168513,-1.05028105,-0.843099177,-0.776905,0.846719742,0.759723306,-0.445536494,-0.427190512,0.822962642,-0.253031373,-0.835279942,0.581778407,0.877478838,0.351322353,-1.0914253,0.0309247114,-0.78471899,0.31363517,-0.490897298
PavolAbrhan,0.021065787850000017,0.6757107692500001,-0.15715583574999994,0.011973272525000002,0.06398846025,-0.14992072,0.07133860524999999,-0.66043495,-0.086973223,0.29648093265000003,-0.01047989500000001,-0.121088005575,0.212147749925,0.152525747875,0.20019095999999997,0.4144350975,0.008334412675000007,0.1559512905,-0.10206020812500002,-0.013536865250000016,0.18713389895000002,0.23591619975,-0.14330506275000002,0.12259402732500002,0.19185853716,0.04379852217500002,-0.025876260250000005,-0.17713834499999997,-0.23332380715,0.12583505350000002,-0.14945575875,0.26425639875,-0.146280461925,-0.18257083175,0.04571698525000001,-0.129089163075,0.270052049075,-0.214268568,-0.159457646,0.17270761525,0.03793428175000002,0.154284565,-0.31881528800000003,-0.10737024700000002,0.05310530599999999,-0.24312409125,-0.07262711655,0.08828710055,0.287468960575,0.13907011275000003,0.19811551814999998,0.20560005450000002,-0.16290796800000001,-0.130757794875,-0.174313039,0.019932619,-0.1407358470045,-0.19861246475,-0.43662710475,0.10673794669999999,-0.19559984749999998,0.0020788009999999912,-0.09342057194999999,0.06156172550000001,-0.17983041924999998,0.16741291199999997,-0.16742581165,0.299883778,0.1014668019,-0.28548640799999997,0.07012947707500002,-0.050060086499999996,-0.409475758,0.07024046075475,-0.20900170099999998,0.003849887250000003,-0.029763950249999997,-0.2928614875,0.164907331505,-0.02699822575,0.012829880500000002,-0.1239938815,0.17073788199999998,0.47132184275,-0.23977747524999998,-0.007001783575,0.15481441325,0.08417163324999999,-0.31708177392500003,-0.027617512999999982,0.27085781475000004,-0.212206441525,-0.21111025625000002,0.0024865259249999827,0.10557238160000001,0.094782437,-0.23995803099999996,-0.221633463,0.046263376074999994,-0.015839961,0.057988493625,-0.12188523375000002,0.031850219875,0.024271005349999986,0.448236042,0.05451777182499998,0.29706910125,-0.28132821875,-0.13277401525,0.0006820224549999865,0.175361223425,0.07575024075,0.07206876469999998,-0.154063448175,-0.29277885425000005,0.307129626,-0.3664249645,0.11638448487499997,-0.19022881997500002,0.1169846565,0.590790711,0.023193127699999996,0.008415631749999986,0.12179948742499998,-0.15085005185,0.10001846625000001,0.07344059749999998,0.3126678465,-0.15437313535,0.026047625000000033,0.128121656,0.43604714250000004,0.13690443762500001,-0.14127803925,0.137511516,-0.22899228475,0.017834221524999996,0.170507773225,-0.05566773675000003,0.03487101474999999,0.28913519185,-0.580869917,-0.38498431575000003,-0.365103796,0.197859983,0.027849152249999995,-0.05473961669999999,0.11523775549999998,-0.0464165748075,-0.138470217,0.07720802075,0.05330029577500002,-0.07032178175,0.012322128749999994,-0.06306596597499999,-0.064976997525,-0.4109495615,0.100050252975,-0.13219823349999998,-0.16025881850749998,0.13812454175,0.16638460724999998,0.11093488575000002,-0.09956903104999999,0.11877600150000003,0.35141675075,0.079320212,-0.0646774726,-0.023464764625000002,0.38346716350000004,-0.15230273350000004,0.023546020574999993,0.06639776982499998,0.36213868345,-0.30659550375,0.04208291174999999,0.08821425100000002,0.5306717795,0.321572448475,0.06025325850000002,0.20070329274999998,-0.23066920025,0.19368278899999997,-0.139252358,-0.020888103825000007,-0.054729049249999995,0.2628825765,0.27609587274999997,0.25880891725,0.08888395225,-0.3671656718,0.44348226175,0.139672855725,-0.20531978105000004,-0.58083533525,-0.06465471125,0.2211662325,-0.218396206,-0.231892609975,0.28496161,-0.056727437749999984,-0.26855054125,-0.33004770275000006,-0.160948211,-0.035599097499999996,-0.30534466317500003,0.02843714724999999,0.484051447,0.08631003532499996,0.095176115,0.05282782925,-0.2979863331325,0.10903387675000001,-0.02678417675,0.060865887925,-0.2506785909,0.447885965125,0.075047551,-0.453570074,-0.25030224275,0.004202045500000001,0.09297157275,-0.29638914075,-0.20639139299999998,-0.04546794224999999,0.07697555724999999,-0.18555121025000001,0.13443375284999998,0.12561659375,0.060664313,0.11160574474999999,0.22655603249999998,0.04055119385,-0.0887670385,0.067362382475,-0.2069714727,-0.04011416649999999,0.45061068535,0.6204517252499999,-0.143079788975,0.43150582875,0.48204532899999997,-0.15136843875,-0.019428158499999987,0.3746366215,0.12023257157500002,-0.12133368384999998,0.025626607549999986,-0.2039924082,0.004469670500000009,0.06967361475,0.26322515074999997,-0.25668330625,-0.19958341426999998,-0.40607010025,0.13347785150000002,-0.6736531635,-0.173529675875,-0.01028377312500002,-0.173613884,0.39646904267500005,-0.148353561475,-0.12917592949999998,0.0936267858075,0.49949791325,-0.17957047672499998,0.16203938175,0.20567664475,-0.5397682725,-0.26314576137500006,-0.355709212,0.13825814549999998,0.17088096525000002,-0.14835299749999997,-0.31967585575,-0.34066259774999996,0.405345838,0.02072660100000001,0.39825885475,0.009526642000000002,0.35715310325,-0.2010967512,-0.40330984375,-0.142481592225,0.035799942249999994,-0.2492791744775,0.06690523910000003,0.14056288075,-0.181902915,0.28878309425,0.074664797,0.038991599125,0.30606101825,-0.25557471025,-0.08234853675,-0.07132509275,0.0016860592500000104,-0.18623927890000003,0.20748304405,-0.231447547875
JúliusBrocka,1.099305162875,-0.03153458449999999,-0.79672318125,0.26606397200000004,0.006417554499999992,-0.07955550650000001,0.30090180825,0.41738295975,0.559967396,0.006723481600000025,0.23353731325,0.12557236375000005,0.30869435,0.321706034,-0.29719694925,-0.17894917575000002,0.6867433895,0.40601235325,-0.068062409,-0.2337086375,-0.08670075224999996,0.07864028150000002,0.21011809675000004,-0.022372073999999992,0.48564820495,-0.2418403145,0.87259376425,0.007890807750000006,0.82139568925,-0.12512298074999995,0.00016663022499996405,-0.27360410587500006,0.42521751825,0.4733580875000001,0.500716753,-0.08747997349999997,0.6337398788249999,0.25988646125,-0.38007973775,0.613321866145,-0.2514664865,0.24678300274999998,-0.13133719300000002,0.67823672225,-0.43860232225000007,0.211983679975,-0.05674454925000001,0.2345625375,0.29931387757500005,-0.49183175475000007,-0.9004328210000001,1.0303850945,-0.26715585249999996,-0.13676052275,0.09431501775000001,-0.07820644445000002,1.561602112,-1.5627340650000001,0.7151473357725,0.39099380525,-1.19185998875,-0.87032419425,-0.7474451045,0.36151245275,-0.08978543775000003,0.13794784582499997,-0.86260190725,0.8688248302999999,-0.655298817,-0.19667279250000003,1.2098287922500002,0.73756564875,0.87029805825,-0.20154834724999998,0.67133906225,-0.07025414725000001,-0.42029407925,-0.26774638575,0.53184102925,-0.19782028647749997,0.20970549500000002,-0.4785158005,0.135926742825,-0.65598903325,0.153131428225,0.42182183100000004,-0.18856917875,0.21406202800000004,-0.63183851675,0.18122595400000002,0.19469814999999996,0.50722952397,0.192542181525,-0.14355920874999994,0.05538811625000006,-0.259241411,-0.29053738549999997,0.024996845749999996,0.6846643185,-1.205750508,-0.40188583425,0.956353437,0.053058121750000006,0.8010630457500001,-0.254009016325,0.06772481749999999,0.15701442600000004,0.229471738325,0.20791926375000003,0.1551311225,-0.32174346225,-0.22264587949999998,-0.7418535552500001,-1.0107082170000001,-0.413508229725,0.25924849224999996,-0.64107950125,-0.061956455725,0.405514130025,-0.90471078475,0.17672881775000004,0.006691932500000025,0.29474895,-1.09810717025,-0.0800069021,-0.15074217525,0.496744339,0.2346839235,0.5810363172499999,-0.07993072899999998,-0.43737236225000004,0.4335509738425001,0.22424209850000004,-0.6398934965,0.25093394725,0.27574866974999995,1.4772557044999999,-0.4749344435,0.73622342275,-0.4854381745,-0.43608917225,0.40429008846000003,0.08574627005000002,0.5103027379999999,0.521495208225,-1.1501815312499999,-1.0239055105,0.46654226949999994,-0.410162307,0.4718926455,1.13413626125,-0.08994022185000006,-0.4485013705,-0.7698711695,0.015023996499999998,-0.177930309725,1.3863175182499998,0.137253021,-0.62990033325,0.24001097425,-0.25903963425,-0.60756399525,-0.058922855999999996,0.05896935072500001,-0.9988436470000001,0.64575523165,-0.1416372785,-0.10920480225000001,-0.525011329,0.12072303225000003,-0.61472576275,-0.28194495375000006,-0.11248969649999996,-0.054327695499999995,-0.31071571025,0.29293124932500003,0.06274630674999992,0.155402386975,-0.4416441017875,0.26910404990000003,-0.21793009349999998,0.57768349015,0.58420837625,0.687470651525,0.3204300367,0.05402702825,-0.0903261975,-0.5163291892499999,0.63188356425,-0.0050354805000000225,0.07114637674999999,0.39602557525,0.6036452004999999,-0.61882373475,1.2065052187799998,0.04663930399999999,-0.35890876375,0.003331046249999997,0.029109637150000006,-0.8657300499999999,0.2734217375,0.029642481449999994,-0.6292317395,0.26345138022500003,-0.76243560525,0.48482514325000003,-0.669419628,0.425974113,-0.10742813174999999,0.799104079,-0.108948666,0.370596754275,-1.0155079035,1.02269429175,0.45588214825,-0.42316411875000004,-0.024921785500000005,0.77999294225,0.338153825175,0.51508484836,0.35735552275000004,-0.04381128074999996,0.6726093505,0.23531938099999997,0.016588321500000003,0.25000856982499997,-0.45104181026,-0.208465658,0.2223036655,-0.9086310955000001,-0.21617106375,-0.45123312250000003,-0.027556884000000004,-0.48623248249999995,-0.09241721775000006,-0.1883949599,-0.0425267569,-0.25312602149999996,-0.34627831375,-0.28751186975,-0.47944283800000004,0.66872077545,-0.17817141649999998,0.05413131491499998,-0.33776738965475,0.06498921575000001,0.1499126870000001,0.4494601385,-0.24652661925000002,-0.9433413765,-0.757845026,-0.53374179975,-0.42358281724999997,-0.359635047825,-0.3026465405,0.42961027807950003,0.01732173749999999,-0.736196256775,-1.2089654407500001,-0.5881795249999999,-0.17918901959999997,0.725137014,-0.7169020780000002,-0.31979149875,-0.12879837270000002,-0.428840703075,-0.09895060475,-0.31857325599999997,-0.1413649025,0.8726545325,-0.31455012172499996,0.18591794862500002,-0.00857986799999999,0.19921499627500003,-0.57097596375,0.5230725869999999,0.6326240285000001,-0.032721415749999996,0.49562899525000004,-0.12906087950000003,-0.10671101949999995,-0.520506169875,-1.030319951,0.40616729,0.2850028945,-0.85412617075,-0.325890281625,0.557757359,0.4285145984,0.831963092,0.20883268593500015,0.17519997924999997,-0.32692587725,0.65504224075,1.14679898475,0.14821178949999997,0.038066531999999986,0.07768168400000003,-0.002945938250000002,0.44831810517500004
MáriaDemeterová,0.15383926,-0.218417004,-0.272214353,-0.0920326933,-0.19257614,-0.921267211,-0.205849022,0.475397617,-0.477368116,-0.292535812,0.0293884631,-0.101826914,0.474543303,-0.00315571367,0.215421036,0.295016617,0.167982921,-0.221979961,-0.547327042,0.341552317,-0.0962675363,-0.435491592,0.0760130361,0.00864216406,0.319927573,0.614793301,-0.0644922107,-0.433857352,0.366630226,0.0335757099,0.294133484,0.181430444,0.591384649,-0.105494,-0.23562105,-0.177989647,0.0618425161,-0.470175892,-0.0539291948,0.268146902,0.0219234284,0.120653339,-0.804763019,-0.23558484,-0.273412466,0.0444700606,0.138681829,-0.12123026,-0.163089365,0.0768895671,0.093896471,0.64172262,0.133325487,-0.164684653,-0.219081551,0.380513579,0.416067183,-0.0147816231,-0.0988524631,0.240977407,0.0801536888,0.108560972,0.203040019,0.101010263,0.206526592,-0.0100735929,-0.138085485,0.812165201,-0.121949054,-0.191741526,0.609138906,-0.0746878162,-0.105785049,-0.0339687467,0.212690368,-0.466868728,0.524018526,-0.0284973979,0.390119851,0.345282316,0.174107268,-0.0448239036,0.408751309,-0.310549349,0.191615775,0.347028166,-0.0114610968,0.454692751,-0.244903311,-0.151932329,0.130770132,-0.395658225,0.0122313173,0.0889379457,0.019457303,0.00870379899,-0.0745622367,-0.251825154,-0.195137575,-0.235563561,-0.362682194,0.130365536,-0.208411604,-0.634435236,-0.289541543,0.0774529874,-0.321460158,-0.485436916,-0.540304124,0.47419247,-0.732016444,-0.575800419,-0.402519196,0.548934579,0.232879981,-0.294838876,0.354499608,0.0976803526,0.559390485,-0.157557905,-0.0282871574,-0.0205079988,-0.289722323,-0.0374467075,0.218690097,0.584879756,-0.191924304,0.411533713,0.311029941,0.0470295958,0.0316007547,-0.140566498,-0.357259482,0.0047883112,0.0457484648,0.0834317878,0.231702209,0.35927093,0.255229443,0.269715041,-0.0478944927,-0.0330421329,0.509825647,0.520262659,-0.315140605,-0.751038432,-0.227061838,0.333300829,0.163770795,-0.476033628,-0.182129115,0.250613451,0.0305117667,-0.575644135,0.189633116,0.260348171,0.264204979,0.159744889,0.113428585,-0.0468280949,0.170626312,-0.531326056,0.153434187,-0.0223809816,-0.586289287,0.427937925,-0.155978814,-0.100213625,0.121226557,0.35060963,-0.252948314,-0.369269609,-0.139620349,-0.366024286,0.532181859,0.163621441,0.0156512819,0.65001148,-0.553772449,-0.470832735,-0.669573784,0.650920868,0.203602508,0.630640566,0.390822232,-0.182511598,0.099645935,-0.237806916,-0.19886975,-0.370946169,0.273261249,-0.075342156,0.434993625,-0.110376276,0.0124544688,-0.27820906,-0.369955689,-0.293245584,-0.0720188022,-0.0856227204,0.040279679,0.353774369,0.0635368749,0.368534893,-0.352271289,0.193385765,-0.434565425,-0.000595407793,-0.432796538,0.0135171358,-0.184507802,0.394416958,0.301631123,0.0218275674,0.373978406,-0.448476434,0.19078052,0.258017093,-0.404700726,-0.0628005937,-0.320037127,0.0723639578,0.261803776,-0.0729028806,-0.0335429795,-0.434479445,1.03401875,0.344503134,-0.0939922333,-0.151991606,0.571572661,-0.658905923,-0.579502463,-0.651168942,-0.0858262926,0.370450169,0.593315244,0.0964819118,-0.142211586,0.24592337,-0.417131722,-0.288583547,0.0637862012,-0.205052286,-0.331064999,0.227749497,-0.0184577294,0.538670778,-0.366471261,-0.387801498,-0.163004175,0.0231599957,-0.608861685,0.236972436,0.074552156,0.242037341,0.235663041,-0.0726809055,-0.106500581,0.347807795,0.133831084,0.824299872,0.333415061,-0.324931026,0.166879058,0.247790158,-0.322229683,0.207379475,-0.218724281,0.305633307,0.440455317,0.0406819321,-0.351286858,-0.48005718,0.177269727,0.517561674,-0.487283081,-0.489793301,0.358432293,0.162885815,0.108722642,-0.574079692,0.087631382,-0.414560616,-0.171668574,-0.198049292,-0.416843951,-0.0290519949,-0.0285594463,-0.110170417,0.00588067668,0.518804491,-0.208719894,0.0553477183,0.477285087,0.177683279,-0.175477684,-0.213672757,0.0364310443,0.18699573
JánFigeľ,0.599035871,0.405597092,-0.4389975556666667,-0.43333089166666666,-0.254430133,0.16190809533333336,0.5079088680666667,-0.087569307,-0.633383879,0.47193029233333333,-0.24686749766666663,0.05735691266666665,0.7117707803333332,0.30329260166666666,-0.7317101096666666,-0.3735899494333333,-0.301948538,0.536744011,0.12091148000000003,-0.9472321853333333,-0.04380698166666667,-0.12414297500000004,-0.2625971476666667,0.38437324333333334,-0.14362270723333334,-0.6404418969,-0.10538097980000001,0.27587148539999995,-0.3975318966666667,-0.3881626556666668,-1.1945635244333332,-0.26703101566666665,0.4832218621,0.18450450208000002,0.3165439886666667,-0.4971373946666667,-0.7948410143333332,0.654191065,0.443818876,-0.3923162416666666,-0.04430732106666666,-1.1446730373333331,1.1831855566666667,0.2928649,-0.6733704006666666,0.12857444066666668,0.2397443866,-0.25483490666666664,1.11311257,0.20329091200000005,-0.8631880658666667,0.38704380033333335,0.004594640666666659,0.5610092480000001,0.10499116033333333,-0.5210782183333333,-0.028202812000000004,-0.29782783766666665,-0.06434020866666668,-0.5352206036666667,-0.6926825383333334,0.14092883933333336,-0.001680618000000041,0.23688631279999997,-0.537395379,0.029966322,0.3909676866666667,-0.5950809300000001,0.10224498266666666,0.3197447459533333,0.08089011396666668,1.3560333433333334,1.0881640240000001,-0.02688925823333334,0.8535226463333334,-0.018010869000000002,-0.48219905100000005,-0.32397182666666663,-0.2611682289333333,0.3422832943333334,-1.1935477060000002,0.5369921333333333,0.7685840770333333,-0.00891206976666666,0.9390183890000001,-0.426186065,-0.616298814,0.8637798393333332,0.03352814000000004,0.9350538005266666,-0.10509910166666668,0.7101682963333333,-0.21636990960000002,-0.8804656479999999,0.027267651333333347,-0.36423430366666665,0.4279065106666667,-0.5484683696666667,0.19029796533333335,0.15408702,-0.8459100066666667,-0.04868850456666668,-0.08165301166666666,0.6893623453333334,0.8354076296666665,0.8434099913333334,0.04204571166666667,0.23757135866666668,-0.040563872000000036,-0.981664649,1.4516288,-0.4527879906666667,0.1104365266666667,1.093559636,0.008014082999999986,0.9316246513333333,-0.16679677233333332,0.37369887599999996,0.8227255743333334,-0.03101117833333337,0.5232742813333333,0.9398421433333333,0.24907207900000006,0.277786564,-0.01909894866666666,-0.44137821793333326,-0.17697063433333335,0.5245476823333334,-0.09260768633333331,-0.23689103366666667,0.4989151103266667,-0.30561698600000003,0.29080939566666664,-0.42252441099999993,-0.213632379,0.096285452,0.9544452923333333,-0.48472735966666664,1.2925385583333333,0.24786222033333336,1.0573390933333333,0.04040402333333337,-0.10656909066666669,-0.8041190359999999,-0.2662098333333333,0.20532262766666665,-0.3644664244333333,-0.5904915789999999,-0.13712833866666665,-0.6996047576666667,-0.018159929999999935,-0.019109160333333357,-0.43062770033333325,0.3191434653,0.7370259913333334,-0.48930460233333334,0.24470941833333335,0.8674635086666665,-0.40995093433333335,0.2994506393333333,0.141668994,-0.12905108733333334,-0.33050404666666666,-0.3909206923333333,-0.04073913233333332,0.6172038220000001,-1.2829733103333334,-0.8733815826666667,-0.734437736,-0.9835274844666667,-0.010866234999999946,0.05124838633333332,0.5812420043333333,-0.08355682466666664,0.29196185999999996,-0.0346013734,-0.08222728290000003,0.5758823483333334,-0.14444533266666668,-0.3326807023333333,0.8670152933333334,0.09716504699999999,0.44790701569999997,-0.8544294308000001,0.01398065299999999,-0.16913962399999996,-0.7500023986666667,0.6214744280000001,0.48294154433333336,-0.17517157466666666,-0.8064211593333334,-0.6618711516666667,0.32258433266666664,-0.10414917533333334,0.483237304,-1.3499064786666668,0.08754192,0.22420098933333332,-0.010239485333333354,0.3784475983333333,0.12472703033333332,-0.6428109876666667,-0.04058688353333332,0.10186064233333335,0.13639579426666668,-0.5522130310000001,0.4483132743333334,0.47601539933333337,0.388149549,0.47608913766666666,0.28062905,0.24292582166666665,-1.007145267,0.3953622206666667,0.644236506,-0.3512793206666667,0.033346554666666695,1.4174367906666667,0.2777857773333334,0.6300273400000002,0.44036116366666667,-0.5417307233333334,-0.4169509773333333,-0.029030420333333362,-0.12241521433333331,-0.2756649643333333,-0.5403672852999999,-0.49083430100000003,-0.021689977333333315,-0.11914201400000002,-1.1110559873333334,-0.8385273906666667,0.29479367333333334,0.44412829433333334,0.12016360866666666,-0.04344275133333333,-0.1675348754,-0.6161890033333334,-0.002707357666666669,-0.01778779666666667,0.53344343,-0.18914069833333333,0.2472401533333334,-0.17466509099999997,-0.46421088866666665,-0.680575611,-0.6779339866666666,0.165229141,-0.3632275866666667,-0.5691341516666667,-0.10169498800000003,-0.5065325576666666,-0.7074686606666667,0.11986953600000001,-0.17081580266666666,-0.9109101476666667,0.9104741000000001,0.463991188,-0.023346126333333366,0.2899874706666667,-1.1474811933333333,-0.09912816066666667,-0.5549692503333333,0.6768125199999999,-0.8446045013333334,-0.225314041,0.2983739975,0.40058967733333334,-0.605051263,0.4525064350333334,1.413666179,-0.6573960833333333,1.3150210766666668,0.6763310603333332,0.555975626,-0.16460653986666665,0.594088411,0.46075455299999996,-0.41091427566666666,-0.029774440666666662,0.019716844830000028,-0.6659105150000001,-0.133133376,1.5510524266666668,-0.304010978,0.3239625502,0.3892203823333334,-0.537820523,0.23809634733333332,-0.3110154565666667,-0.030678325666666655,-0.4716438006666666,0.0038073666666666637,-0.16918642466666667,-0.5381768456666667,-0.11590640250000002,-0.4739664675333333,-0.2215463447,0.4402747714333333,0.41463698666666665
MartinFronc,-0.42153111675,0.02640732174999999,-0.48316759,0.3333783327500002,0.12166709625,0.5818953502499999,-0.5032402515000001,-0.91283866,0.36881070024999996,0.013997423750000015,-0.5210575555000001,-0.13458104625,-0.446286225,-0.60222376445,0.19433695875,0.05769478999999998,0.33170652775,-0.06608524688049999,0.18253834475,-0.004277284249999971,0.53412973425,0.318599375,-0.25900919199999994,-0.7290493445,0.04971663874999997,-0.0541525785,-0.1325529,-0.49031425275,1.0680456175000002,0.22181847525000004,-0.6264760475,0.6744981575,0.20827099325000004,-0.27953715163,-0.11872100049999998,-0.42306204125,0.9599119949999999,0.185626018,-0.97317306625,-0.3725420375000001,0.24429631249999997,0.056403778749999994,0.21414198799999998,-1.00263927,-0.23572719799999997,0.07615829949999997,-0.27397765795,-0.234691536225,0.20484382825000003,-0.105118001325,0.72429781025,-0.16977959175,0.635770465,-0.984236011,0.4328531103,0.92906862575,0.239649915,0.033675025000000025,0.9441551891625,0.33554514950000003,0.05844093792499998,0.11160471324999999,-0.09285238665,0.711197945,-0.04533928150000002,-0.1317137065,0.49760603524999997,-0.299348542475,0.22341605525000005,-0.7026430527499999,-0.26699375032500006,0.51057754625,-0.7315315072499999,-0.010231689749999995,0.17705356125,0.014282288249999997,-0.054146955,-0.08334224175000002,-0.614820278,0.5981428692499999,-0.6442624865,0.03519348099999997,-0.058300985250000006,0.13325117299999995,0.75357257605,-0.18007935425,-0.7132541929000001,0.09963226675,0.566555696,0.6402497227499999,0.740913748325,-1.1027016225,-0.8669219895,0.007637253149999999,0.4662276525,-0.2477421855,-0.38808410800000004,-0.42449779,-0.51042617,0.30609331474999996,0.11411753735,0.06617316135,0.09836845874999998,-0.69196954425,0.015253695750000018,0.21978377,-0.10327140500000001,-0.41239742575,0.14935895,-0.5843256185,-0.31450775,-0.446544382125,0.2812225075,0.24362513174999997,0.05519444450000005,-1.16381169,-0.10458152075000002,-0.20422981037500001,0.31727785824999993,0.85371223825,0.09992624025,-1.0541564300000001,-0.331035545,-0.39041495449999997,-0.407482339775,-0.31887683405,-0.7383365355,-0.47835848775,-0.005893938250000008,-0.20998311075,-0.803381562,-0.27135048500000003,0.03814953799999998,0.00448392000000003,-0.1428779275,-0.688349907,0.19985643172499998,0.4093744397500001,-0.6466841065000001,0.20842581324999995,0.24047376774999998,-0.18353806225000002,0.06338505425000002,0.059131081,0.21097153175,-0.87388495475,-0.01886238350000001,0.45721504125,-0.12628601174999998,-0.25857078899999997,-0.14898694575,0.58972792425,-0.34971498625,-0.6416107565,-0.16772138000000003,0.358895108,0.48890837725,0.37327522939999996,0.13973939125,-0.08343420549999998,-0.49816879425000005,-0.44397163522500005,0.6778050125,0.3608961895000001,-0.35454089250000004,0.0345888947,-1.00028571525,-0.451160453875,0.37549822349999995,0.39460411474999996,-0.29553852724999996,0.32174713005000005,-0.04469166049999997,0.08068597449999998,0.408783684225,-0.1660307081,0.0984623325,-0.12352043499999998,0.8288782625,-0.3306450577500001,0.5112511817500001,0.40449275749999997,-0.170575255075,0.59729113775,-0.4679226645,0.2680513495,0.93627134025,-0.28637524825,-0.676924876,0.8202824263749999,-0.5594926805000001,0.9425898457499999,-0.16852815000000002,0.26818207675,-0.57514986875,-0.047143027499999955,-0.077190478,-0.3114066115,0.42849142075,0.40762709825000004,-0.45038095275,-0.7166917644999999,0.28547566125,0.16694559299999998,-0.035108946000000016,-0.16686009324999995,0.40725581024999996,0.27938404125000005,0.002720925250000006,0.22771331,-0.740399986,0.05579698374999997,0.21960880524999998,0.55783834275,0.3556534995,-0.1420123935,0.31009574674999996,-0.008107297500000027,-0.51068289825,-0.47229055999999997,-0.08088848000000004,-0.46905196650000003,-0.9050150475000001,0.33841802364250007,-1.00408277,-0.06086603249999998,0.07005167825000001,1.3802408599999998,0.24409448925000002,-0.26625033425,-0.10588064624999996,-0.2889515205,0.1181683755,-0.38830590699999995,-0.16021677567500003,-0.26761424875,-0.05656304749999996,0.194421806825,-0.14369613575,0.047603075750000015,-0.42739916559999996,0.19501988705499998,-0.10883464849999999,-0.22846240199999995,-0.39218224999999995,-0.14366626075,0.12349743949999997,0.005034922499999983,0.017444617500000037,0.389859818,0.22756928199999998,-0.17974641624999999,-0.050461607349999986,-0.164899105,-0.3998886115,0.31147698125,-0.937110899,-0.47474629525,-0.5424010545,-0.039700766750000005,0.19054573325000002,-0.5894476557499999,0.2646979535,-1.0512260375,-0.6043046132500001,0.03421536075000001,0.29785609825000003,0.31494974893750005,-0.285698236,0.671685111,0.5499429444999999,0.04568457324999998,0.06890505562499999,-0.77301535936125,-0.027803721249999996,0.635356965,-0.442664504,1.4506780424999999,-0.024720831499999985,-0.98708555575,-0.32061585425000005,0.2747174785,-0.12161349825000001,0.21886277099999996,-0.63883767025,-0.38135975675,0.36716469375,-0.9009316675000001,0.050623322499999956,0.4544553745,0.3330376452500001,0.33921792900000003,-0.01780938024999995,-0.07278710575000003,0.30774356675,0.35794606075,-0.0013701047499999897,0.39638435650000003,-0.24906015675,-0.09673724530000005
PeterBódy,0.471285969,-0.50906831,-0.811500013,-0.0381059162,-0.13791728,-0.23048377,-0.296797782,-0.162482738,-0.520276487,0.373149306,0.380234331,0.273212403,0.50543505,-0.269600064,0.161241546,1.32301617,0.240335658,-0.463594258,-0.904750764,0.38040337,0.324714571,-0.389809042,0.0596627071,-0.608979702,0.111057773,0.153451383,0.150109395,-0.0250927284,0.282406688,0.762046456,0.0678836033,1.34866154,0.601179659,-0.374278486,0.0490435846,0.406223923,0.402178913,-0.396386445,-0.351932973,0.841399014,0.4403283,-0.413333356,-0.390856177,-0.498749107,0.135595903,0.652670145,0.546520829,-0.0465018004,-0.510517478,-0.942032337,0.590657473,-0.612157166,0.232005909,-0.0220893659,-0.621879399,0.737249553,0.918272316,0.0853888914,-0.830828846,0.9119187,-0.0727252141,-0.542060435,0.766616821,0.801654935,0.0736639574,-0.115739457,0.0559607223,0.971910894,0.191425711,-0.670497835,0.334194928,0.801352501,0.562668204,-0.278875589,0.331936479,-0.862576246,0.498838782,0.759442449,-0.216407388,-0.755975127,0.649583757,0.546318412,0.501306772,-0.63387394,0.37050575,0.952618659,0.416497409,-0.435833961,-0.812155485,0.197429821,0.987941265,0.649402022,-0.180961296,-0.150289133,0.0144051341,-0.857473016,-0.308868021,-0.0852353573,0.0693912804,0.943799555,-0.320982486,0.134863123,0.255119264,-0.567064524,0.732983291,0.413815141,0.266842395,-0.0684470013,-0.563418508,0.349110156,-0.364912271,-0.466641217,-0.522640109,-0.0827770531,0.303363711,-0.51512605,0.50817126,-0.478662968,0.977504969,-0.502073646,-0.903414547,-0.562182188,-0.550439835,0.293888956,0.214948416,-0.390115649,0.122611143,0.970397294,-0.305913478,0.209822148,-0.122972094,-1.15338969,0.344892234,-0.575656831,0.755837798,-0.0330651887,0.808770776,0.718209267,0.22985439,0.457344472,0.367749631,0.0351657532,1.11140954,0.707635581,0.556016922,0.0173061136,0.0538322143,0.317353636,-0.329030544,-0.640564322,0.016681334,0.115470804,-0.381607622,0.00112377515,-0.0955377668,0.0388770401,0.288994193,-0.0717439726,0.0830580518,0.0311346576,-1.29980326,-0.639364123,0.152393639,0.449416786,-0.775313675,0.0355887376,-0.495229393,-0.443727374,-0.271915704,0.379300803,-0.027638549,0.319307268,0.484845668,0.0985744819,0.740954399,-0.207205713,1.39515352,0.483052552,-0.331451893,0.968432069,-0.206734478,0.737269282,0.480207831,0.406095684,-0.401963502,0.824648082,-0.516441345,0.21623759,0.109764867,-0.100960575,0.567821741,-0.130991563,-0.939367831,1.51348758,0.957629085,0.336259991,0.342695206,-0.0502515957,1.19198978,0.344348997,0.000816239102,1.74602652,-0.472814977,-0.571882844,-0.874899387,-0.208366141,-0.355922163,0.144714192,-0.444690198,0.455047727,0.125831485,-0.437610894,0.105948709,0.155403942,0.786146045,-0.362553328,0.578339994,0.337546229,-0.418980569,-0.881397724,-0.947533965,0.186236531,0.176408306,0.408876359,0.406190783,-0.378389567,0.818157136,-0.710247338,0.146467134,-0.59324801,-0.272818834,-0.300535172,-0.519867003,-0.966649592,-0.707075,-0.244562075,-0.27452904,0.598228574,0.310891092,0.952004373,0.353610128,-0.0584415309,0.981055856,-0.126792744,-0.934930205,0.416341275,-0.305834413,1.06791794,-0.266496658,-1.01256943,-0.155172572,-0.470481545,-1.05749857,0.860472977,-0.25455302,0.700564921,0.554476976,0.189376906,0.0858893842,0.420085132,-0.550368428,0.522105336,0.219200283,-0.0527055487,0.568710566,0.251206636,-1.33841658,-0.00386572559,-0.411731929,-0.59771049,-0.234185323,0.439506471,-0.209289923,-0.625819564,-0.847171307,-0.549455404,-0.0478190817,-0.592301428,0.377194822,0.123410776,-1.0234158,-1.08879113,0.531195283,-0.480925947,1.01830661,0.0708928183,0.180249542,-0.921132803,0.858073354,-0.929269135,-0.0082560936,1.02599895,-0.601248324,0.266827583,0.743779778,1.31814885,0.524222136,-0.217556223,0.584461331,0.200816929
FerdinandDevínsky,-0.5362412667,-0.16126059905,0.037376292000000005,0.4988322264,-0.030349522500000004,0.04786439250000002,0.123531163,-0.9024063514999999,0.31036772565,0.43284696145,-0.43263842199999997,-0.6401802274,0.07289345550000001,0.009980239000000002,0.0158953295,0.2210603655,0.8761152350000001,-0.21886812505,-0.37963940225000004,-0.0014595240000000176,0.1554924695,0.331939727,-0.24205088795000002,-0.6467267875,0.3682241815,-0.053788169999999996,0.12359519299999999,-0.4997541235,0.21046833023,0.11685168750000001,0.0018221285000000198,1.0635803044999999,0.323712461,-0.402138114,-0.012776226000000002,-0.6234127205,0.867177278,0.3295154645,-0.576727018,-0.1354199575,0.41388044025000004,0.12598577535,-0.675905197,-0.3367937917,0.08094368899999999,0.6247240599999999,-0.6900353285,0.35591121375,0.370116599,0.2986298205,0.5873337065,-0.1360117495,-0.034265473500000004,-0.328394309,0.04063953449999999,0.1511462978,-0.5556559715,-0.93924132,-0.143957622,0.2116497235,0.21771897133,0.036870203500000004,0.09712526765,0.418862595,0.20118024585,0.508341506,0.49141267315,-0.8892610950000001,-0.5061871259999999,-0.28492295749999996,-0.18347584449999998,0.8213067635,-0.618166998,0.09048753999999998,0.19215647900000002,-0.19462539335,0.0538867415,-0.2311196625,-0.6722863020000001,0.11617344595,0.36202921,-0.1127458084,0.51279518,-0.058482559000000045,0.30211702,-0.1364263783,-0.8485222750000001,-0.7717234805,0.8596721885,0.30404334499999996,0.1285395585,-0.4260454775,0.0890876055,0.3665284515,0.26871564805000003,-0.4528271255,-0.400941789,0.5570384585,-0.458040282,0.2935550025,0.13232579630000002,-0.301121652,0.539155828,-0.35464207844999995,0.062702574,-0.324514996,-0.3472784385,0.135636747,-0.2797299475,-0.15400893249999997,-0.16116678695,-0.6186202915,-0.2265806945,0.2970742545,-0.12315140699999999,-0.05169736115,0.2242893724,-0.22486256790000003,0.03528583499999993,0.5175015629999999,-0.259641096,-0.7283214689999999,-0.06483133099999999,0.047282666,-0.052309832550000004,0.06905186149999998,-0.48717241855000004,-0.3121732025,0.5955006780000001,-0.1383877395,-0.5865113735,-0.3629826755,0.1425595505,0.719685452,-0.09749639804999999,-0.37083256249999996,0.4379688875,0.08450243255,-0.27751091149999996,-0.3027494565,0.0864361075,-0.27990056939999997,-0.1389205155,-0.4089151395,-0.160339776,-0.4421789088,0.09947805099999998,0.10502303770000002,0.0196066795,-0.1967983395,-0.9223039765,0.3677956015,0.0562304555,0.2924203125,-0.436453313,-0.19223366305,0.135283761,0.8062159579999999,0.5085257271,0.015199840500000006,0.1367812005,-0.5588927269999999,0.513648554,-0.22580364349999998,0.2483493685,-0.02027854300000001,-0.26586953944999997,-0.7592276625,-0.2874187083,0.08170584615000001,-0.6456337249999999,0.1009795445,0.32049365350000003,0.213340185865,0.461540073,0.1431948395,-0.207802571,0.703543859,0.205469348,-0.5172344745,0.11530636250000001,0.1444840617,0.39203073255,0.487114385,-0.13211916399999998,0.45296500064999995,0.5791556535,-0.037943050499999964,-0.2089919745,0.3142586055,-0.5517853495,1.42079538,-0.157470852,0.3737892285,-0.359591305,-0.032026246000000036,-0.06742627150000001,-0.8529031265,0.6688267145,0.20917576180000003,-0.28552218549999997,-0.41703586300000006,0.40293232560000003,0.4824926405,-0.2901830825,0.1688424645,0.29692294085000004,0.406038493,-0.1557875814,0.6479456214999999,-0.24827791664999999,0.21101531395,0.2392670051545,0.260722883,-0.5622121245,-0.2588406355,0.074211955,-0.03003140075,-0.3395875095,0.216094136,-0.656979948,-0.43664893549999995,0.1333889439,0.2628892808,-0.32241378365,-0.2654980162,0.2800447715,0.9858609439999999,0.1953158791,-0.06643973861000001,0.340899647,-0.6893310845,-0.1786844059,-0.473711498,0.023865044000000002,-0.333545789,-0.3654734285,0.418695018,0.2756841465,0.9496493735,0.04854220150000002,0.0208624305,-0.2534761205,0.051696174,0.2138314175,0.703361804,0.14801019450000003,0.6653451325,0.5989721865,0.6138497144999999,-0.07727819699999999,-0.14119809900000002,-0.2388102038,-0.5663096905,-0.33581000205,-0.1726352086,0.07364346049999998,-0.779277993,-0.5305215865,-0.05986917000000003,0.4508956355,-0.10422044999999999,0.342450708,-0.309604332,-0.0686007376,0.42547764650000003,0.6072838604999999,0.166010514,0.037243652999999995,0.244914845,0.02222257385,0.3664322965,0.20348670725,0.28710761279999997,0.15510647749999998,0.488132611,-0.16737174999999999,0.8060940505,-0.0016244054999999813,-0.48464928449999994,-0.23803492650000002,-0.034119066,-0.007262662000000003,-0.147031054,-0.40541545685,-0.2314780913,0.051086667684999996,-0.6198433935000001,-0.9528191975,0.41917991649999997,0.573355049,0.4387928475,-0.05952194300000002,-0.3853883,-0.27596882149999996,0.4628501985,0.1216409955,0.23455769205,-0.7068466525,0.010862482700000002
TomášGalbavý,-0.6270893833333333,-0.25943281766666665,0.061746000999999995,-0.21395214199999998,0.14337270300000002,-0.04377762889999998,0.012738537333333341,-0.0843126281333333,0.7381354096666666,0.6812537332756666,0.34329691866666673,0.3648696683333333,0.566789595,-0.4290696143333333,0.270102848,0.14580928233333332,-0.13241278400000003,-0.26477113533333335,-0.09914937733333333,-0.48354442466666664,-0.7649746023666667,0.1565527778333333,0.7661654803333334,-0.8080051450000001,-0.3452257225,0.7313160721333333,-0.25752525433333334,0.05591796866666667,-0.24862062599999998,0.0684260448,0.11228793313333334,0.5100291466666667,-0.1921365966666667,0.36932656933333335,-0.06656395766666666,0.19790927900000002,-0.32282589933333333,-0.31768661933333336,-0.35767794966666666,0.8189651360000001,0.17885556966666663,-0.3077995966666667,-0.20254022113333334,-0.3095598256666667,-0.14391090463333334,0.16645496066666668,-0.03270880096666667,-0.15086734476666666,-0.29449676999999996,-0.4642828923333333,-0.41689058533333334,-0.17283927566666665,-0.23826675926666666,-0.4509880176666667,0.4522628613333333,0.10040772133333331,0.3132781683333334,-0.3140285253333333,-0.21382794966666666,-0.23804628766666672,0.067853225,-0.6380102093333333,-0.14951836533333332,0.03298447379999999,0.2947051623333334,0.5942779941333334,-0.271366086,-0.5619291504333334,-0.6108282926666667,-0.03234940733333334,0.4743892896666666,0.3298059703333333,0.2568564575333333,0.3792046743333333,0.025464056333333335,-0.26122833166666665,0.16683870633333334,0.05282018746666666,0.105574192,0.054210035933333366,0.23987547566666667,0.05967425576666665,0.4530723426666667,-0.420536169,-0.24679157366666668,0.3217581243333334,0.136844242,-0.088262061,-0.3540230066666667,0.44356760933333333,0.47573984166666666,-0.22411835766666666,0.056467271333333326,0.02710593706666667,-0.072591453096,-0.4879717640333334,0.04631730866666667,-0.01613123283333333,-0.23944392400000003,0.04928086366666665,0.15273387253333334,-0.4036504886666667,0.06283608533333332,-0.2316517096666666,0.06642789466666665,0.4298343007666667,-0.010809335666666661,0.23398507766666665,-0.005751008000000002,0.44434742433333335,-0.42632627500000003,-0.001973944666666653,-0.21393090133333334,0.658835195,-0.243861122,-0.01683931999999999,-0.013461627266666663,-0.022199550333333356,-0.20084359599999999,-0.247506994,-0.05544516066666666,-0.4907199343333333,0.019649996333333346,0.548057522,-0.02781958333333338,-0.17636624766666667,0.5448208004,-0.3047909916666667,0.44137914576666665,-0.020814100000000002,-0.658048382,-0.47768588566666664,0.164093108,-0.16278312166666664,-0.11724865606666668,-0.6612801243333334,0.2017185453333333,1.1594960903333333,-0.196131046,-0.3163703590333334,0.21993822,-0.3261930743333333,0.023505303666666644,-0.011032582333333327,0.021459337000000005,-0.2562489083766667,-0.003570435666666668,0.9392496346666666,0.12120778423333332,-0.241125862,-0.21002229666666672,-0.060457861,-0.21584612933333333,-0.7157560993333334,-0.17423077533333334,-0.1286496465,-0.4399811306666666,0.646220139,-0.07243783846666665,-0.17099935766666663,-0.337764212,-0.20214237566666668,0.04068871786666666,-0.3284299159,0.29919273166666666,-0.04604678866666667,-0.08512540666666667,-0.029729652000000006,0.08985440816666668,0.35730895313333333,-0.12254249233333336,0.45175086266666664,0.49374535799999997,-0.24237068033333334,0.10470186266666666,-0.23021754133333336,0.116065826,0.19793774333333336,-0.010795031333333335,0.6572870073333333,-0.08686710533333332,-0.35492334600000003,0.35406593199999997,0.13536709433333333,-0.502921555,-0.25080132559999996,0.10001505833333331,0.7373474136666666,0.391562766,0.10489256033333332,0.43699180330000004,0.7874456310000001,0.39212912366666663,0.4086531426666667,0.40952699100000006,0.4496910084666667,0.6042131616666667,-0.10514655799999999,0.18943327733333334,-0.23957393863333332,-0.04680888023333333,0.7268191243333333,-0.2604663525,-0.23498266799999998,-0.06805116923333333,0.3120489273666667,0.2518417858,0.07315192173333333,0.3487494736666667,0.07363638366666664,-0.33444346799999997,0.010325286333333314,-0.13126861800000003,0.5289175353333334,-0.6907726636666668,0.3702177583,-0.29174515233333337,-0.29425736100000005,0.2552825884,-0.5869575266666667,-0.07777925333333335,-0.262867888,-0.12033120633333334,-0.3195670093333333,0.5130478933333333,-0.2331702933333333,0.446462455,0.11150553866666668,0.713314358,0.7840306133333333,-0.045424902366666665,0.33714191200000004,0.2115778693333333,0.032840364000000004,-0.4446420586666666,0.03775668299999999,-0.672703274,0.25233693300000004,-0.9120163978666667,0.33883675966666676,-0.418525266,0.16510175,0.44953495233333335,0.140588578,0.14683735033333334,0.38155550600000004,-0.45778857933333333,0.4667137336666667,-0.06344336666666668,0.38431897666666676,-0.5399174576333333,0.20064677726666666,-0.5326466476666667,0.20373897933333332,0.42860391966666667,0.5785300603333333,0.15689214833333334,-0.14411826,-0.42563144233333333,0.3270581630666667,0.30067265300000007,-0.5378522383333334,-0.05803717233333331,-0.6504318960000001,0.106647461,0.10677464266666666,-0.2209342366,-0.06451662833333331,-0.306691737,-0.1749180457,-0.07299007233333331,0.09961715833333334,-0.22877366033333332,0.443891964,-0.6276532496666667,0.04620593930000002,-0.101012219,0.2034461306666667,-0.8657965856666666,-0.46180547600000005,0.243333735,0.15532211666666668,-0.5140391116666667,-0.662459443,0.563771151,0.01395093199999999,0.48819200599999996,-0.239389382,0.2184414202,0.033995681333333326,0.8235702266666666,0.2334674316666667,-0.647163586,0.2676000856666667,0.49912072493333337,-0.18810849433333332,0.20621360233333333,0.331535876,-0.02890751089999999,0.081007495
MilanGaľa,-0.1362750755,-0.0989780353,-0.172122156015,-0.12199185209999999,0.11278930665,0.0933964401,0.11288669700000001,0.1348698175,-0.26780001049999996,-0.18323244154999999,0.06015462615,0.17606601100000002,-0.08372888710000001,-0.30255007700000003,0.2002904942,-0.06793552625,-0.12201297250000001,-0.05830319785,-0.02127814855,-0.0229897066,0.23528108,-0.04679633885,-0.0343007037,0.04220315820000001,0.0436862705,0.04959119740000001,0.06025450305,-0.01601185835,0.303565897,0.1716190053,-0.07968767565,0.18915275686000002,0.1192240444,0.09525107965,0.0022071376499999996,-0.010572996000000001,0.23228988425000002,-0.18703672999999998,-0.0029726638699999995,0.094118353,0.1946077645,-0.0517948831,0.04662143425,-0.05806255335,0.021079323999999997,0.2884046585,0.12617268065,-0.09374806670000001,-0.1862910389,0.0141084865,0.085732581,-0.014199430150000001,-0.022458042999999997,0.1139056886,0.1658372917,0.25588031689999996,0.01625776999999999,0.0659076438,-0.07010759400000001,0.2038120257,0.0020428560000000026,-0.30131691699999996,0.22770598509999998,0.051238164399999994,-0.005674704999999995,0.03807084285,-0.00026229020000000103,0.06599718190000001,0.0336655108,-0.20073567325,-0.15375639875,0.27577708275,0.09828165559999999,-0.075569359285,0.14335617075,-0.3488163205,0.073198035,-0.06875938745,-0.14450950525,0.010215990000000001,0.1732985075,0.09324999915,0.0814373419,-0.229290649,0.024940151500000007,0.09113034625,-0.0607411973,-0.157933070575,-0.1758125795,-0.009948395499999999,0.15899190285,-0.041921660099999994,0.011454471360000001,0.1488751768,-0.0338077900305,0.08453850245,0.1640592709,-0.31113039705,-0.00972587615,-0.17084094505,0.0943175412,0.2017565555,-0.14179117623999998,0.046489460600000004,-0.0262691572,0.02024676394,0.046294458399999995,-0.2021413,-0.09595255550000001,-0.029390908500000007,0.029267035499999997,-0.1009517658,-0.10188175945,-0.048680160225,0.02935604750000001,-0.14694147165000002,0.10593826205,0.01576044921,0.19712728065000001,-0.0425373762,-0.07440396399999999,-0.020776641999999998,-0.02405429445,0.3323446665,-0.053727457500000006,-0.289296843,-0.0710310666,0.06398392095,0.03487970215,0.25178978755,-0.3474752605,-0.14982745050000001,-0.1035706811,-0.15426772049999998,-0.007660649999999991,-0.07244616370000001,0.3495558505,0.052431457599999995,0.06935493649999999,0.0832434595,0.13036628849999998,-0.0727018602,0.1196331942,0.03164218645,0.05205116400000001,-0.027270937300000003,-0.12919426695,0.11166552435,0.027084250915000004,0.17913704349999998,0.1241902714,0.07454274395,-0.16164099785000002,0.2389472575,-0.2541924154,0.025277001750000003,-0.013809307999999992,-0.17431434220000003,-0.02664770945,-0.12129412785,-0.10502437325,-0.08120033145,0.1238063026,-0.10765804165,-0.2622871845,-0.012287751,-0.12329542565,-0.1187141334,0.0841500275,0.014471394000000002,0.13293728115,0.054226594355000005,-0.043297990999999994,0.011235919000000004,0.2512847855,-0.00317303075,0.0688397175,0.029861360649999998,-0.08307839945,-0.02036599445,0.04424613000000001,0.12426039019999999,-0.024883042949999996,0.077816397,-0.2110725715,-0.0707081202,-0.11910333782,-0.04068236050000001,0.05167154605,-0.06773135090000001,0.034179389299999995,0.13581863859999999,-0.21227731195,-0.0281201975,0.0570627277,0.14842819429999998,0.04906165208,0.189588703,0.0316090686,0.09083177849999999,0.029101431500000004,0.1891469639,-0.14974898835,-0.03794567299999999,-0.09530467175000001,0.09943223725,-0.07869439375,-0.0811430739,-0.015228852500000008,0.242050357,-0.189987498014,-0.004144949800000002,-0.0036405763,0.0368000064,-0.007981293,0.017969159450000004,-0.010524597000000004,-0.11607324414999999,-0.18609867949999997,-0.09963229479999999,-0.1775070315,0.07359702165,0.07849387659,0.08297225255,0.0764669309,-0.04508949853,0.18999470045,-0.060328547,-0.06299426405,-0.14661511395,-0.11287774895000001,0.014255661699999998,-0.0220674125,-0.3221353051,-0.1449969226,0.030756994999999995,-0.07377588765000001,0.08691820600000001,-0.11745131674499999,0.16240346049999999,-0.1665488185,-0.190250322,0.0753567591,0.02873418295,-0.0593859533,0.04644068353,-0.054519224899999996,0.0639834815,0.10262401045,-0.030995733999999997,0.11148378414999999,-0.052614994199999994,-0.28176702195000003,0.14908838275,-0.064781739187,0.057079057950000005,0.2563496085,-0.068494304445,0.09154914774999999,0.1690075875,-0.2650700695,0.13838929695000002,0.156039849,-0.19838179845,-0.0923156672,0.08105608075000001,-0.15431251025,-0.22268324325,0.1199079529,-0.03254306505,-0.049752770099999996,0.07462270955,-0.10307887639999999,-0.1031287683,0.0169001343,0.1177467858,0.040951370999999986,-0.10911418475000001,-0.0119612776,0.1838598885,-0.14692313955,-0.06270670889999999,0.12529431853499998,-0.4210091905,0.218777008,-0.0313856305,0.21055881399999998,0.06440948504999999,-0.13311092725,-0.3658492565,0.043154917849999995,0.08172595895,-0.07805332544999999,-0.0487530675,0.10687948000000001,0.058522415529999997,-0.024602130575000002,-0.08109276005,-0.11318382265,0.12655610574999998
MilanHort,0.45079602,0.39600100666666666,-0.7530105366666667,-0.3682416376666667,0.33730733333333335,0.43840382333333333,0.7113329013333334,-0.2252698266666667,-0.12900574666666675,0.11085959066666666,0.26244884,0.9113911966666667,0.6142670333333333,0.395292583,-0.3615316513333333,0.6795453400000001,0.6808262366666668,0.6514032903333333,1.4108422356666666,0.4069043076666667,-1.27410352,-0.4392039956666666,1.0256998266666668,0.45534461666666665,0.24064432999999993,-0.8341539643333334,-0.14802350333333333,0.2362277066666667,-1.3293745833333332,0.05381126066666666,0.38314222633333334,0.4526075233333334,-0.19044571433333335,0.2394309133333333,0.14441342363333334,-1.1088278863333332,-0.4951191533333333,0.6130339233333334,0.4150376466666667,-0.07162696333333336,0.8979415756666667,-0.9357173433333333,-1.104637416,-0.2732818233333334,-0.42559012866666673,-0.7008215066666666,0.260830929,0.00539985333333326,0.43586780199999997,-0.848769107,0.011149074333333333,-0.952592886,-0.2164356049,0.11006104000000001,0.026694813999999994,0.2971866343333333,0.023631874333333358,0.08665237900000002,-0.4594034086666667,-0.047663500000000004,0.5496559833333333,1.1047864966666667,-0.6972823863333334,-1.04203693,0.7093054433333333,-0.6250952133333333,0.8328065166666666,0.07568264666666676,0.19636764666666662,0.4095288033333333,0.42571708666666663,-0.6773847700000001,-0.38500012633333336,-0.3268924233333333,-0.7401600089999999,0.9298823433333333,-0.460784483,-0.33834400933333336,-0.35861595666666674,0.26648009133333334,-0.270665637,1.0152111626666667,1.1072044766666667,0.26517508666666667,-0.22942397666666667,-0.5061236386666667,-0.45324149599999997,-0.58656034,-0.2635882573333333,-0.30421694,1.1137730966666666,0.2771793086666667,0.1489065766666667,-0.8386006400000001,-0.98931918,-0.19387025666666666,-0.1757864567,-0.8987187066666666,0.10619985300000002,0.9872983699999999,-0.6211827513333333,1.068348645,0.07620853400000004,-0.4278019716666667,-0.20431739333333335,-0.32892901300000005,0.5166188956666666,0.3977794266666666,-0.6736498446666667,-0.291135416,-0.5373866733333333,-0.40687782133333333,-1.9840866366666667,0.53679312,-0.3285126606666667,0.8809952766666665,0.30736886566666666,-0.098271175,-0.3641174636666667,0.11342136933333336,-0.5122447966666667,-0.48613054,0.5683850476666666,-0.3555142973333334,0.75367248,0.7738697700000001,0.788176118,0.10824203533333336,-1.2425652996666667,-0.029463277333333315,-0.13870480999999998,-0.21333541400000003,-0.4714383969,1.06732675,0.6608173101,-0.6164993276666667,-0.9474254633333334,-0.03178633366666669,-1.23165215,-1.1331154700000001,-0.1996322503333333,-0.554169022,-0.21402376999999997,0.05139153966666669,-0.2566523406666667,0.98686822,0.5045878263666667,0.4866664166666666,-0.7886844816666666,-1.0813475333333333,0.24616854633333332,-0.34486448099999994,-0.019240096600000003,-0.11332470866666666,0.5882128066666666,0.8260446,-0.448957436,0.8895153499999999,-0.028165927999999996,-1.1305064150000002,0.673837861,0.10745782999999998,0.11099597633333336,-0.30730925666666664,0.43886884333333337,1.7082436433333335,0.43252055333333334,0.4849183353333333,-0.2584142766666666,0.26872196533333337,-0.39445335766666667,0.47187135900000005,0.43048252100000006,0.10530328066666668,0.2767858456666667,-0.8141855123333334,0.6215626696666666,0.18394267833333333,-0.18430236966666666,0.17210979000000007,0.13843146666666664,-0.17154760999999996,0.9292444466666666,-0.47248740666666666,0.16403081666666666,0.27717949566666666,0.16476101633333332,-0.11137620300000006,-0.030980644666666685,0.11082295666666668,-0.8262276983966667,-0.32584923666666665,0.43581227333333333,1.4191943046666664,0.9561104733333333,0.5498334340000001,-0.2909605,-0.05534404623333331,0.5505076266666666,0.08504727366666666,0.4979504673333333,0.39361170266666673,0.1857287533333333,-0.5217182633333334,-0.08352176333333339,0.467125215,0.4149021766666667,0.005015433333333356,0.4178368133333333,0.342513241,0.5756082503333334,-0.1431623323333333,-0.7032049700000002,-0.39726369166666675,-0.20374151033333332,0.7150038633333334,0.5581578760000001,-0.23388937466666668,0.12656208866666666,-0.065415457,0.43251882166666666,0.17043238966666663,-0.0076072973333333556,-0.2432026823333333,-0.06190786366666667,0.13908926,-0.23030632466666667,0.21836131366666667,0.9319406916666666,-0.2969406983333333,-0.24213096826666666,-1.0773173,-0.83691733,-0.4099097733333334,-0.44949846000000004,0.7804947633333333,0.2648911133333334,-1.1835021533333334,0.9711582233333335,-0.7560183,-0.28279670333333334,-0.2930796327333333,0.20160815833333334,0.6159205753333333,0.2647558626666667,-0.27727377000000003,0.30910855666666665,0.5051853199999999,-0.8268371626666667,0.32749100333333336,-0.9596126866666667,1.5061181133333335,0.19898002666666667,-0.20534248233333333,-0.05709560166666664,-0.003472870666666683,-1.4057824733333335,-0.47640871,0.5623248033333333,0.44974667733333334,0.8608011233333333,0.08846683866666667,-0.4060863466666666,1.1222600079999998,0.8305942646666667,-0.7211492666666667,-0.4091225766666667,-0.16016430048666666,-0.04465748366666663,-0.2644690916666666,-0.7539780190000002,0.39870801999999994,0.07725703666666665,0.34174551633333333,-0.21600270666666668,-0.10739865966666667,-0.281036831,-0.45449973633333335,0.41042362,0.23907267099999996,0.7026792833333334,-0.24992296533333327,0.8988216799999998,0.8852170033333334,-0.0329737966666667,1.2984858433333333,0.464894077,-0.16587259666666662,0.40450949630000005,1.806016653333333,-0.45571158733333333,-0.005495576666666668,-0.5794637623333333,0.5915312053333334,0.5823923846666667,-1.509920776666667,-0.2239165948,0.19145945266666667,0.7904862896666666,0.191634764
AndrejHajduk,0.427282304,0.884940028,-0.453311801,-0.1464338,-0.169414997,-0.410158753,-0.950334728,-0.216360986,0.128429949,-0.0590394251,-0.28395915,0.167100579,0.0500382558,0.0834876299,0.0287696645,-0.290118903,-0.283331215,-0.779091299,0.539590001,0.410286725,-0.143771932,-0.5542413,-0.350543499,0.075420782,0.15712893,0.432390749,-0.307181865,0.0910752863,0.401254714,-0.221157506,-0.35351941,0.315711468,0.127883986,0.444794029,0.00449393597,0.0247722138,-0.132879689,0.227579072,-0.099978812,0.26468569,0.0652977824,-0.0407371223,-0.314051658,-0.150640935,-0.15927045,0.364237756,-0.0012073823,-0.15153195,0.277170509,-0.0224688724,-0.504241467,0.975391328,0.0837605074,0.00714293122,0.453807831,-0.0673069209,-0.165906131,0.165884808,-0.464001715,-0.53576833,-0.143985227,0.262171596,-0.275330126,0.566172302,0.718787491,-0.780519664,-0.120153658,0.0199047271,-0.18506901,0.226541638,-0.334242016,0.328301758,0.278007805,0.37896058,0.412901878,-0.105380915,0.208848476,-0.445508122,-0.125437498,-0.126775503,0.0407152474,0.0486098155,0.1779892,0.03080751,-0.469816774,0.619174719,-0.0605837293,0.206007466,-0.413001716,0.0207774714,-0.172611356,-0.171355098,-0.273842514,-0.329153746,-0.26637575,0.314254582,-0.0675201043,0.590114951,-0.509524941,0.139685735,0.00922725163,-0.937927902,-0.207371548,-0.355319172,0.075584121,-0.023462018,-0.419830382,0.558734477,-0.0278561879,-0.192155525,-0.13620019,-0.105800159,-0.437870681,0.328520447,-0.224536523,0.17161262,-0.144456729,0.338765442,-0.127152234,0.126507744,-0.186771467,0.299601793,-0.294777453,0.261610299,-0.166356578,0.406395882,-0.214309305,-0.297946393,-0.0977197811,-0.255276382,0.202886537,-0.058712814,-0.12325041,-0.100918204,-0.371732533,0.19709383,0.352137715,-0.197269753,-0.0523613542,-0.284563243,0.246003598,-0.0412731431,0.486808568,-0.473951131,0.183339536,0.0045577595,-0.0696757659,-0.496824622,-0.0350432545,-0.299625397,0.0634472445,-0.0917730853,-0.515741289,0.166531727,-0.302574575,-0.0845853537,0.0374373905,-0.600194991,-0.134474888,0.111981049,-0.313663125,-0.229094833,-0.121181622,-0.0956264883,-0.0548657291,0.539598823,-0.119913377,-0.0941364691,-1.07765377,0.445643097,0.0537108406,-0.339800447,0.658622682,-0.510927677,0.173427403,-0.357809305,-0.0501955487,0.480422884,-0.319549084,0.17681998,-0.544014096,0.495290488,-0.575604796,-0.528589129,-0.678421438,0.126202345,-0.0401725583,-0.631793499,-0.358674347,0.118698545,0.604627371,-0.349807322,-0.114874713,0.54824847,0.317134768,-0.279821366,-0.226181686,-0.137272596,-0.0242102407,-0.154869407,-0.326845407,-0.243038669,-0.206139639,0.0268804692,-0.522956848,0.220803678,0.162387609,0.423175752,-0.667920709,0.291435957,0.249696732,-0.279848754,-0.0259717032,0.0211266577,-0.338155568,-0.475165606,-0.269792616,0.26540035,0.0469753705,-0.176016942,-0.284557521,-0.237503737,0.245198235,0.0378279686,-0.0397623889,-0.0235279649,0.79440546,-0.29316771,-0.285930932,-0.0976264924,-0.250862718,-0.656314552,-0.212972686,-0.133726537,0.409331292,1.1323235,-0.306522608,-0.253889531,-0.139309824,0.196363032,0.263604552,0.033160191,0.286832929,-0.559147954,-0.130151778,0.0471478999,0.525521755,-0.191053137,0.135843515,0.40676415,0.121544585,-0.12390849,-0.0281450823,0.304930568,0.392457098,-0.229711175,-0.110930026,0.161818817,0.126865074,0.429706037,-0.239353821,-0.109302364,-0.20495677,-0.112282217,-0.00658893259,0.408270448,0.170349553,-0.0860433504,0.258873731,0.577912331,0.0446644723,-0.295167536,-0.00111962389,0.0920684189,0.0588472039,0.197877884,0.112236463,-0.181071132,-0.59890455,0.263643116,-0.138818845,0.00731076254,-0.18948631,0.263665974,0.343450665,0.124515496,0.556155145,0.107682027,0.524640083,0.292103797,0.043178957,0.335664451,-0.13832508,-0.16155982,-0.246522695,0.0817698315,0.448659539,0.42837742,0.174276307,0.165124506
